<?xml version="1.0"?>
<MethodSetup Method="BDT::BDTG">
  <GeneralInfo>
    <Info name="TMVA Release" value="4.2.1 [262657]"/>
    <Info name="ROOT Release" value="6.12/07 [396295]"/>
    <Info name="Creator" value="gwangjun"/>
    <Info name="Date" value="Mon Jun  3 15:10:49 2019"/>
    <Info name="Host" value="Linux vocms0315.cern.ch 2.6.32-696.30.1.el6.x86_64 #1 SMP Tue May 22 06:09:36 CEST 2018 x86_64 x86_64 x86_64 GNU/Linux"/>
    <Info name="Dir" value="/afs/lns.mit.edu/user/gwangjun/CMSSW_10_3_2/src/BmesonRun2018/tmva/train"/>
    <Info name="Training events" value="181556"/>
    <Info name="TrainingTime" value="1.12726424e+02"/>
    <Info name="AnalysisType" value="Classification"/>
  </GeneralInfo>
  <Options>
    <Option name="V" modified="Yes">False</Option>
    <Option name="VerbosityLevel" modified="No">Default</Option>
    <Option name="VarTransform" modified="No">None</Option>
    <Option name="H" modified="Yes">False</Option>
    <Option name="CreateMVAPdfs" modified="No">False</Option>
    <Option name="IgnoreNegWeightsInTraining" modified="No">False</Option>
    <Option name="NTrees" modified="Yes">1000</Option>
    <Option name="MaxDepth" modified="Yes">2</Option>
    <Option name="MinNodeSize" modified="Yes">2.5%</Option>
    <Option name="nCuts" modified="Yes">20</Option>
    <Option name="BoostType" modified="Yes">Grad</Option>
    <Option name="AdaBoostR2Loss" modified="No">quadratic</Option>
    <Option name="UseBaggedBoost" modified="Yes">True</Option>
    <Option name="Shrinkage" modified="Yes">1.000000e-01</Option>
    <Option name="AdaBoostBeta" modified="No">5.000000e-01</Option>
    <Option name="UseRandomisedTrees" modified="No">False</Option>
    <Option name="UseNvars" modified="No">2</Option>
    <Option name="UsePoissonNvars" modified="No">True</Option>
    <Option name="BaggedSampleFraction" modified="Yes">5.000000e-01</Option>
    <Option name="UseYesNoLeaf" modified="No">True</Option>
    <Option name="NegWeightTreatment" modified="No">pray</Option>
    <Option name="Css" modified="No">1.000000e+00</Option>
    <Option name="Cts_sb" modified="No">1.000000e+00</Option>
    <Option name="Ctb_ss" modified="No">1.000000e+00</Option>
    <Option name="Cbb" modified="No">1.000000e+00</Option>
    <Option name="NodePurityLimit" modified="No">5.000000e-01</Option>
    <Option name="SeparationType" modified="No">giniindex</Option>
    <Option name="RegressionLossFunctionBDTG" modified="No">huber</Option>
    <Option name="HuberQuantile" modified="No">7.000000e-01</Option>
    <Option name="DoBoostMonitor" modified="No">False</Option>
    <Option name="UseFisherCuts" modified="No">False</Option>
    <Option name="MinLinCorrForFisher" modified="No">8.000000e-01</Option>
    <Option name="UseExclusiveVars" modified="No">False</Option>
    <Option name="DoPreselection" modified="No">False</Option>
    <Option name="SigToBkgFraction" modified="No">1.000000e+00</Option>
    <Option name="PruneMethod" modified="No">nopruning</Option>
    <Option name="PruneStrength" modified="No">0.000000e+00</Option>
    <Option name="PruningValFraction" modified="No">5.000000e-01</Option>
    <Option name="SkipNormalization" modified="No">False</Option>
    <Option name="nEventsMin" modified="No">0</Option>
    <Option name="UseBaggedGrad" modified="No">False</Option>
    <Option name="GradBaggingFraction" modified="No">5.000000e-01</Option>
    <Option name="UseNTrainEvents" modified="No">0</Option>
    <Option name="NNodesMax" modified="No">0</Option>
  </Options>
  <Variables NVar="5">
    <Variable VarIndex="0" Expression="TMath::Abs(BsvpvDistance/BsvpvDisErr)" Label="dls3D" Title="dls3D" Unit="" Internal="dls3D" Type="F" Min="2.00000381e+00" Max="1.41697107e+03"/>
    <Variable VarIndex="1" Expression="TMath::Cos(Bdtheta)" Label="costheta" Title="costheta" Unit="" Internal="costheta" Type="F" Min="-1.00000000e+00" Max="1.00000000e+00"/>
    <Variable VarIndex="2" Expression="TMath::Abs(Btrk1Dxy1/Btrk1DxyError1)" Label="Btrk1Dxysig" Title="Btrk1Dxysig" Unit="" Internal="Btrk1Dxysig" Type="F" Min="1.02297076e-06" Max="6.48127060e+01"/>
    <Variable VarIndex="3" Expression="TMath::Abs(Btrk1Dz1/Btrk1DzError1)" Label="Btrk1Dzsig" Title="Btrk1Dzsig" Unit="" Internal="Btrk1Dzsig" Type="F" Min="1.18258583e-06" Max="1.64224036e+03"/>
    <Variable VarIndex="4" Expression="Btrk1Pt" Label="Btrk1Pt" Title="Btrk1Pt" Unit="" Internal="Btrk1Pt" Type="F" Min="9.00000393e-01" Max="6.76677561e+00"/>
  </Variables>
  <Spectators NSpec="0"/>
  <Classes NClass="2">
    <Class Name="Signal" Index="0"/>
    <Class Name="Background" Index="1"/>
  </Classes>
  <Transformations NTransformations="0"/>
  <MVAPdfs/>
  <Weights NTrees="1000" AnalysisType="1">
    <BinaryTree type="DecisionTree" boostWeight="1.0000000000000000e+00" itree="0">
      <Node pos="s" depth="0" NCoef="0" IVar="2" Cut="2.7355806827545166e+00" cType="1" res="6.6174305975437164e-02" rms="4.9560162425041199e-01" purity="5.6617432832717896e-01" nType="0">
        <Node pos="l" depth="1" NCoef="0" IVar="4" Cut="1.3972965478897095e+00" cType="1" res="-2.3309977352619171e-01" rms="4.4233980774879456e-01" purity="2.6690024137496948e-01" nType="0">
          <Node pos="l" depth="2" NCoef="0" IVar="-1" Cut="0.0000000000000000e+00" cType="1" res="-9.7358219325542450e-02" rms="1.1416842788457870e-01" purity="1.3208906166255474e-02" nType="-99"/>
          <Node pos="r" depth="2" NCoef="0" IVar="-1" Cut="0.0000000000000000e+00" cType="1" res="4.9885963089764118e-03" rms="4.9937745928764343e-01" purity="5.2494299411773682e-01" nType="-99"/>
        </Node>
        <Node pos="r" depth="1" NCoef="0" IVar="-1" Cut="0.0000000000000000e+00" cType="1" res="9.1929227113723755e-02" rms="1.9678781926631927e-01" purity="9.5964616537094116e-01" nType="-99"/>
      </Node>
    </BinaryTree>
    <BinaryTree type="DecisionTree" boostWeight="1.0000000000000000e+00" itree="1">
      <Node pos="s" depth="0" NCoef="0" IVar="1" Cut="9.0476191043853760e-01" cType="1" res="4.2223922908306122e-02" rms="4.6964731812477112e-01" purity="5.4513454437255859e-01" nType="0">
        <Node pos="l" depth="1" NCoef="0" IVar="4" Cut="2.2968575954437256e+00" cType="1" res="-4.1787472367286682e-01" rms="2.2238430380821228e-01" purity="5.4974917322397232e-02" nType="0">
          <Node pos="l" depth="2" NCoef="0" IVar="-1" Cut="0.0000000000000000e+00" cType="1" res="-9.4491079449653625e-02" rms="2.6964770630002022e-02" purity="3.7782799608976347e-06" nType="-99"/>
          <Node pos="r" depth="2" NCoef="0" IVar="-1" Cut="0.0000000000000000e+00" cType="1" res="5.5474787950515747e-03" rms="5.0013440847396851e-01" purity="5.3123003244400024e-01" nType="-99"/>
        </Node>
        <Node pos="r" depth="1" NCoef="0" IVar="1" Cut="9.9093139171600342e-01" cType="1" res="2.3391300439834595e-01" rms="4.0855658054351807e-01" purity="7.4934780597686768e-01" nType="0">
          <Node pos="l" depth="2" NCoef="0" IVar="-1" Cut="0.0000000000000000e+00" cType="1" res="-6.2849581241607666e-02" rms="3.6003944277763367e-01" purity="1.6429495811462402e-01" nType="-99"/>
          <Node pos="r" depth="2" NCoef="0" IVar="-1" Cut="0.0000000000000000e+00" cType="1" res="7.0313073694705963e-02" rms="3.1356167793273926e-01" purity="8.7314718961715698e-01" nType="-99"/>
        </Node>
      </Node>
    </BinaryTree>
    <BinaryTree type="DecisionTree" boostWeight="1.0000000000000000e+00" itree="2">
      <Node pos="s" depth="0" NCoef="0" IVar="1" Cut="9.0476191043853760e-01" cType="1" res="1.2526641599833965e-02" rms="4.4686073064804077e-01" purity="5.1128971576690674e-01" nType="0">
        <Node pos="l" depth="1" NCoef="0" IVar="4" Cut="1.4175401926040649e+00" cType="1" res="-4.2688536643981934e-01" rms="3.1830299645662308e-02" purity="0.0000000000000000e+00" nType="0">
          <Node pos="l" depth="2" NCoef="0" IVar="-1" Cut="0.0000000000000000e+00" cType="1" res="-8.4728047251701355e-02" rms="1.7470169812440872e-02" purity="0.0000000000000000e+00" nType="-99"/>
          <Node pos="r" depth="2" NCoef="0" IVar="-1" Cut="0.0000000000000000e+00" cType="1" res="-9.3596518039703369e-02" rms="2.0203160122036934e-02" purity="0.0000000000000000e+00" nType="-99"/>
        </Node>
        <Node pos="r" depth="1" NCoef="0" IVar="1" Cut="9.9092990159988403e-01" cType="1" res="1.9995258748531342e-01" rms="4.0858256816864014e-01" purity="7.2937422990798950e-01" nType="0">
          <Node pos="l" depth="2" NCoef="0" IVar="-1" Cut="0.0000000000000000e+00" cType="1" res="-3.2892316579818726e-02" rms="4.3817734718322754e-01" purity="2.8793773055076599e-01" nType="-99"/>
          <Node pos="r" depth="2" NCoef="0" IVar="-1" Cut="0.0000000000000000e+00" cType="1" res="6.1502423137426376e-02" rms="3.3479872345924377e-01" purity="8.5455119609832764e-01" nType="-99"/>
        </Node>
      </Node>
    </BinaryTree>
    <BinaryTree type="DecisionTree" boostWeight="1.0000000000000000e+00" itree="3">
      <Node pos="s" depth="0" NCoef="0" IVar="2" Cut="1.9307935237884521e+00" cType="1" res="-6.6318482160568237e-02" rms="4.2129617929458618e-01" purity="4.1671207547187805e-01" nType="0">
        <Node pos="l" depth="1" NCoef="0" IVar="4" Cut="2.2968516349792480e+00" cType="1" res="-2.9881784319877625e-01" rms="3.1916716694831848e-01" purity="1.1916009336709976e-01" nType="0">
          <Node pos="l" depth="2" NCoef="0" IVar="-1" Cut="0.0000000000000000e+00" cType="1" res="-6.9501250982284546e-02" rms="2.7192997932434082e-01" purity="8.0939635634422302e-02" nType="-99"/>
          <Node pos="r" depth="2" NCoef="0" IVar="-1" Cut="0.0000000000000000e+00" cType="1" res="9.3098487704992294e-03" rms="5.0813752412796021e-01" purity="5.1191806793212891e-01" nType="-99"/>
        </Node>
        <Node pos="r" depth="1" NCoef="0" IVar="1" Cut="9.0476191043853760e-01" cType="1" res="2.6295351982116699e-01" rms="3.1561678647994995e-01" purity="8.3811342716217041e-01" nType="0">
          <Node pos="l" depth="2" NCoef="0" IVar="-1" Cut="0.0000000000000000e+00" cType="1" res="-8.5019446909427643e-02" rms="4.1832685470581055e-02" purity="0.0000000000000000e+00" nType="-99"/>
          <Node pos="r" depth="2" NCoef="0" IVar="-1" Cut="0.0000000000000000e+00" cType="1" res="6.8232141435146332e-02" rms="2.4899849295616150e-01" purity="9.1799473762512207e-01" nType="-99"/>
        </Node>
      </Node>
    </BinaryTree>
    <BinaryTree type="DecisionTree" boostWeight="1.0000000000000000e+00" itree="4">
      <Node pos="s" depth="0" NCoef="0" IVar="1" Cut="8.0952382087707520e-01" cType="1" res="4.2022909969091415e-02" rms="4.0029004216194153e-01" purity="5.4427379369735718e-01" nType="0">
        <Node pos="l" depth="1" NCoef="0" IVar="4" Cut="1.4175394773483276e+00" cType="1" res="-3.5319375991821289e-01" rms="3.2612349838018417e-02" purity="0.0000000000000000e+00" nType="0">
          <Node pos="l" depth="2" NCoef="0" IVar="-1" Cut="0.0000000000000000e+00" cType="1" res="-7.5440809130668640e-02" rms="1.5449219383299351e-02" purity="0.0000000000000000e+00" nType="-99"/>
          <Node pos="r" depth="2" NCoef="0" IVar="-1" Cut="0.0000000000000000e+00" cType="1" res="-8.2234993577003479e-02" rms="3.0535504221916199e-02" purity="0.0000000000000000e+00" nType="-99"/>
        </Node>
        <Node pos="r" depth="1" NCoef="0" IVar="1" Cut="9.9093109369277954e-01" cType="1" res="1.7334541678428650e-01" rms="3.7943926453590393e-01" purity="7.2512489557266235e-01" nType="0">
          <Node pos="l" depth="2" NCoef="0" IVar="-1" Cut="0.0000000000000000e+00" cType="1" res="-4.5305810868740082e-02" rms="3.6762505769729614e-01" purity="1.8751850724220276e-01" nType="-99"/>
          <Node pos="r" depth="2" NCoef="0" IVar="-1" Cut="0.0000000000000000e+00" cType="1" res="5.9038117527961731e-02" rms="3.0451130867004395e-01" purity="8.7433654069900513e-01" nType="-99"/>
        </Node>
      </Node>
    </BinaryTree>
    <BinaryTree type="DecisionTree" boostWeight="1.0000000000000000e+00" itree="5">
      <Node pos="s" depth="0" NCoef="0" IVar="2" Cut="2.7355828285217285e+00" cType="1" res="1.7500789836049080e-02" rms="3.7663346529006958e-01" purity="5.2577811479568481e-01" nType="0">
        <Node pos="l" depth="1" NCoef="0" IVar="4" Cut="1.6459341049194336e+00" cType="1" res="-1.7935864627361298e-01" rms="3.5797989368438721e-01" purity="2.2151808440685272e-01" nType="0">
          <Node pos="l" depth="2" NCoef="0" IVar="-1" Cut="0.0000000000000000e+00" cType="1" res="-7.6133444905281067e-02" rms="1.4479692280292511e-01" purity="1.8949398770928383e-02" nType="-99"/>
          <Node pos="r" depth="2" NCoef="0" IVar="-1" Cut="0.0000000000000000e+00" cType="1" res="2.3281043395400047e-02" rms="4.3694737553596497e-01" purity="5.8940124511718750e-01" nType="-99"/>
        </Node>
        <Node pos="r" depth="1" NCoef="0" IVar="-1" Cut="0.0000000000000000e+00" cType="1" res="6.6184781491756439e-02" rms="1.7315727472305298e-01" purity="9.5365571975708008e-01" nType="-99"/>
      </Node>
    </BinaryTree>
    <BinaryTree type="DecisionTree" boostWeight="1.0000000000000000e+00" itree="6">
      <Node pos="s" depth="0" NCoef="0" IVar="2" Cut="3.0863575935363770e+00" cType="1" res="-7.9908423125743866e-02" rms="3.4022504091262817e-01" purity="3.9708283543586731e-01" nType="0">
        <Node pos="l" depth="1" NCoef="0" IVar="4" Cut="2.5762274265289307e+00" cType="1" res="-2.7457180619239807e-01" rms="2.4337258934974670e-01" purity="8.4140218794345856e-02" nType="0">
          <Node pos="l" depth="2" NCoef="0" IVar="-1" Cut="0.0000000000000000e+00" cType="1" res="-6.7083105444908142e-02" rms="2.1086621284484863e-01" purity="5.7741962373256683e-02" nType="-99"/>
          <Node pos="r" depth="2" NCoef="0" IVar="-1" Cut="0.0000000000000000e+00" cType="1" res="3.7429078947752714e-03" rms="4.6423968672752380e-01" purity="5.2585321664810181e-01" nType="-99"/>
        </Node>
        <Node pos="r" depth="1" NCoef="0" IVar="-1" Cut="0.0000000000000000e+00" cType="1" res="6.3527815043926239e-02" rms="1.6436581313610077e-01" purity="9.5903128385543823e-01" nType="-99"/>
      </Node>
    </BinaryTree>
    <BinaryTree type="DecisionTree" boostWeight="1.0000000000000000e+00" itree="7">
      <Node pos="s" depth="0" NCoef="0" IVar="1" Cut="9.0476191043853760e-01" cType="1" res="2.1978450939059258e-02" rms="3.8659664988517761e-01" purity="4.6872088313102722e-01" nType="0">
        <Node pos="l" depth="1" NCoef="0" IVar="1" Cut="8.1405174732208252e-01" cType="1" res="-2.5090423226356506e-01" rms="1.4494532346725464e-01" purity="2.8257740661501884e-02" nType="0">
          <Node pos="l" depth="2" NCoef="0" IVar="-1" Cut="0.0000000000000000e+00" cType="1" res="-6.9619037210941315e-02" rms="5.0455361604690552e-02" purity="0.0000000000000000e+00" nType="-99"/>
          <Node pos="r" depth="2" NCoef="0" IVar="-1" Cut="0.0000000000000000e+00" cType="1" res="-2.4607049301266670e-02" rms="3.4908166527748108e-01" purity="2.2028394043445587e-01" nType="-99"/>
        </Node>
        <Node pos="r" depth="1" NCoef="0" IVar="1" Cut="9.8640072345733643e-01" cType="1" res="1.5913389623165131e-01" rms="3.9721289277076721e-01" purity="6.9010508060455322e-01" nType="0">
          <Node pos="l" depth="2" NCoef="0" IVar="-1" Cut="0.0000000000000000e+00" cType="1" res="-6.1189189553260803e-02" rms="2.2695086896419525e-01" purity="7.8080944716930389e-02" nType="-99"/>
          <Node pos="r" depth="2" NCoef="0" IVar="-1" Cut="0.0000000000000000e+00" cType="1" res="5.5491909384727478e-02" rms="3.6723697185516357e-01" purity="8.1444114446640015e-01" nType="-99"/>
        </Node>
      </Node>
    </BinaryTree>
    <BinaryTree type="DecisionTree" boostWeight="1.0000000000000000e+00" itree="8">
      <Node pos="s" depth="0" NCoef="0" IVar="2" Cut="1.7055125236511230e+00" cType="1" res="1.1140617541968822e-02" rms="3.1676331162452698e-01" purity="5.2899807691574097e-01" nType="0">
        <Node pos="l" depth="1" NCoef="0" IVar="4" Cut="2.2968516349792480e+00" cType="1" res="-2.2167994081974030e-01" rms="2.5625696778297424e-01" purity="8.7993994355201721e-02" nType="0">
          <Node pos="l" depth="2" NCoef="0" IVar="-1" Cut="0.0000000000000000e+00" cType="1" res="-6.3465677201747894e-02" rms="1.9509612023830414e-01" purity="4.5087791979312897e-02" nType="-99"/>
          <Node pos="r" depth="2" NCoef="0" IVar="-1" Cut="0.0000000000000000e+00" cType="1" res="1.5096580609679222e-02" rms="4.9582940340042114e-01" purity="5.1628553867340088e-01" nType="-99"/>
        </Node>
        <Node pos="r" depth="1" NCoef="0" IVar="1" Cut="9.0476191043853760e-01" cType="1" res="1.9128496944904327e-01" rms="2.2972281277179718e-01" purity="8.7022399902343750e-01" nType="0">
          <Node pos="l" depth="2" NCoef="0" IVar="-1" Cut="0.0000000000000000e+00" cType="1" res="-7.0992566645145416e-02" rms="7.3087990283966064e-02" purity="0.0000000000000000e+00" nType="-99"/>
          <Node pos="r" depth="2" NCoef="0" IVar="-1" Cut="0.0000000000000000e+00" cType="1" res="5.7627700269222260e-02" rms="1.9590371847152710e-01" purity="9.3684726953506470e-01" nType="-99"/>
        </Node>
      </Node>
    </BinaryTree>
    <BinaryTree type="DecisionTree" boostWeight="1.0000000000000000e+00" itree="9">
      <Node pos="s" depth="0" NCoef="0" IVar="2" Cut="2.7511317729949951e+00" cType="1" res="-3.1424846500158310e-02" rms="3.1031286716461182e-01" purity="4.3774598836898804e-01" nType="0">
        <Node pos="l" depth="1" NCoef="0" IVar="4" Cut="2.5762259960174561e+00" cType="1" res="-1.5510068833827972e-01" rms="2.9547193646430969e-01" purity="1.6303020715713501e-01" nType="0">
          <Node pos="l" depth="2" NCoef="0" IVar="-1" Cut="0.0000000000000000e+00" cType="1" res="-5.4273396730422974e-02" rms="2.3184439539909363e-01" purity="8.4236443042755127e-02" nType="-99"/>
          <Node pos="r" depth="2" NCoef="0" IVar="-1" Cut="0.0000000000000000e+00" cType="1" res="5.6075438857078552e-02" rms="3.8221099972724915e-01" purity="7.8677427768707275e-01" nType="-99"/>
        </Node>
        <Node pos="r" depth="1" NCoef="0" IVar="-1" Cut="0.0000000000000000e+00" cType="1" res="5.2754182368516922e-02" rms="1.8446649610996246e-01" purity="9.3828237056732178e-01" nType="-99"/>
      </Node>
    </BinaryTree>
    <BinaryTree type="DecisionTree" boostWeight="1.0000000000000000e+00" itree="10">
      <Node pos="s" depth="0" NCoef="0" IVar="1" Cut="9.0476191043853760e-01" cType="1" res="3.8508936762809753e-02" rms="3.2118558883666992e-01" purity="5.2615338563919067e-01" nType="0">
        <Node pos="l" depth="1" NCoef="0" IVar="1" Cut="8.1405335664749146e-01" cType="1" res="-1.9176332652568817e-01" rms="1.3474920392036438e-01" purity="2.8300795704126358e-02" nType="0">
          <Node pos="l" depth="2" NCoef="0" IVar="-1" Cut="0.0000000000000000e+00" cType="1" res="-6.4513102173805237e-02" rms="5.6717216968536377e-02" purity="0.0000000000000000e+00" nType="-99"/>
          <Node pos="r" depth="2" NCoef="0" IVar="-1" Cut="0.0000000000000000e+00" cType="1" res="-1.8555754795670509e-02" rms="3.1953302025794983e-01" purity="2.1870386600494385e-01" nType="-99"/>
        </Node>
        <Node pos="r" depth="1" NCoef="0" IVar="4" Cut="1.1396856307983398e+00" cType="1" res="1.3675880432128906e-01" rms="3.2733917236328125e-01" purity="7.3857134580612183e-01" nType="0">
          <Node pos="l" depth="2" NCoef="0" IVar="-1" Cut="0.0000000000000000e+00" cType="1" res="-5.7454504072666168e-02" rms="2.4716469645500183e-01" purity="1.9227628409862518e-01" nType="-99"/>
          <Node pos="r" depth="2" NCoef="0" IVar="-1" Cut="0.0000000000000000e+00" cType="1" res="4.9364518374204636e-02" rms="2.9852917790412903e-01" purity="8.2762145996093750e-01" nType="-99"/>
        </Node>
      </Node>
    </BinaryTree>
    <BinaryTree type="DecisionTree" boostWeight="1.0000000000000000e+00" itree="11">
      <Node pos="s" depth="0" NCoef="0" IVar="2" Cut="3.0863204002380371e+00" cType="1" res="2.6936512440443039e-03" rms="2.8747028112411499e-01" purity="5.1038211584091187e-01" nType="0">
        <Node pos="l" depth="1" NCoef="0" IVar="2" Cut="1.1756868362426758e+00" cType="1" res="-1.4568053185939789e-01" rms="2.9879716038703918e-01" purity="1.3074199855327606e-01" nType="0">
          <Node pos="l" depth="2" NCoef="0" IVar="-1" Cut="0.0000000000000000e+00" cType="1" res="-5.5619440972805023e-02" rms="2.2899335622787476e-01" purity="5.2185744047164917e-02" nType="-99"/>
          <Node pos="r" depth="2" NCoef="0" IVar="-1" Cut="0.0000000000000000e+00" cType="1" res="-1.3559253886342049e-02" rms="3.8156244158744812e-01" purity="2.7862718701362610e-01" nType="-99"/>
        </Node>
        <Node pos="r" depth="1" NCoef="0" IVar="-1" Cut="0.0000000000000000e+00" cType="1" res="5.6209959089756012e-02" rms="1.2233253568410873e-01" purity="9.7329992055892944e-01" nType="-99"/>
      </Node>
    </BinaryTree>
    <BinaryTree type="DecisionTree" boostWeight="1.0000000000000000e+00" itree="12">
      <Node pos="s" depth="0" NCoef="0" IVar="1" Cut="9.0476191043853760e-01" cType="1" res="3.4128885716199875e-02" rms="3.0113503336906433e-01" purity="5.3294563293457031e-01" nType="0">
        <Node pos="l" depth="1" NCoef="0" IVar="4" Cut="2.0174877643585205e+00" cType="1" res="-1.8172194063663483e-01" rms="5.8167278766632080e-02" purity="0.0000000000000000e+00" nType="0">
          <Node pos="l" depth="2" NCoef="0" IVar="-1" Cut="0.0000000000000000e+00" cType="1" res="-6.1077676713466644e-02" rms="4.1985094547271729e-02" purity="0.0000000000000000e+00" nType="-99"/>
          <Node pos="r" depth="2" NCoef="0" IVar="-1" Cut="0.0000000000000000e+00" cType="1" res="-7.3193229734897614e-02" rms="8.1402100622653961e-02" purity="0.0000000000000000e+00" nType="-99"/>
        </Node>
        <Node pos="r" depth="1" NCoef="0" IVar="4" Cut="1.1419005393981934e+00" cType="1" res="1.2055239826440811e-01" rms="3.1545507907867432e-01" purity="7.4632930755615234e-01" nType="0">
          <Node pos="l" depth="2" NCoef="0" IVar="-1" Cut="0.0000000000000000e+00" cType="1" res="-1.6030486673116684e-02" rms="3.0312272906303406e-01" purity="4.2350402474403381e-01" nType="-99"/>
          <Node pos="r" depth="2" NCoef="0" IVar="-1" Cut="0.0000000000000000e+00" cType="1" res="4.5400470495223999e-02" rms="3.0271354317665100e-01" purity="8.2354742288589478e-01" nType="-99"/>
        </Node>
      </Node>
    </BinaryTree>
    <BinaryTree type="DecisionTree" boostWeight="1.0000000000000000e+00" itree="13">
      <Node pos="s" depth="0" NCoef="0" IVar="1" Cut="9.0476191043853760e-01" cType="1" res="3.7940975278615952e-02" rms="3.1003117561340332e-01" purity="5.3236716985702515e-01" nType="0">
        <Node pos="l" depth="1" NCoef="0" IVar="4" Cut="1.6536066532135010e+00" cType="1" res="-1.6430933773517609e-01" rms="5.3904645144939423e-02" purity="9.3425870772989583e-07" nType="0">
          <Node pos="l" depth="2" NCoef="0" IVar="-1" Cut="0.0000000000000000e+00" cType="1" res="-5.9409029781818390e-02" rms="3.6869302392005920e-02" purity="0.0000000000000000e+00" nType="-99"/>
          <Node pos="r" depth="2" NCoef="0" IVar="-1" Cut="0.0000000000000000e+00" cType="1" res="-6.6472083330154419e-02" rms="6.6488221287727356e-02" purity="4.9214113460038789e-06" nType="-99"/>
        </Node>
        <Node pos="r" depth="1" NCoef="0" IVar="1" Cut="9.5464962720870972e-01" cType="1" res="1.1864835768938065e-01" rms="3.3238404989242554e-01" purity="7.4480628967285156e-01" nType="0">
          <Node pos="l" depth="2" NCoef="0" IVar="-1" Cut="0.0000000000000000e+00" cType="1" res="-5.6905794888734818e-02" rms="2.3746661841869354e-01" purity="5.8633446693420410e-02" nType="-99"/>
          <Node pos="r" depth="2" NCoef="0" IVar="-1" Cut="0.0000000000000000e+00" cType="1" res="3.9673440158367157e-02" rms="3.2686066627502441e-01" purity="7.8457939624786377e-01" nType="-99"/>
        </Node>
      </Node>
    </BinaryTree>
    <BinaryTree type="DecisionTree" boostWeight="1.0000000000000000e+00" itree="14">
      <Node pos="s" depth="0" NCoef="0" IVar="2" Cut="1.9307935237884521e+00" cType="1" res="-4.3497834354639053e-02" rms="2.5960162281990051e-01" purity="4.2055341601371765e-01" nType="0">
        <Node pos="l" depth="1" NCoef="0" IVar="4" Cut="2.5633037090301514e+00" cType="1" res="-1.6255360841751099e-01" rms="2.2478723526000977e-01" purity="7.2649277746677399e-02" nType="0">
          <Node pos="l" depth="2" NCoef="0" IVar="-1" Cut="0.0000000000000000e+00" cType="1" res="-6.1355676501989365e-02" rms="1.6768157482147217e-01" purity="2.8093505650758743e-02" nType="-99"/>
          <Node pos="r" depth="2" NCoef="0" IVar="-1" Cut="0.0000000000000000e+00" cType="1" res="3.5960152745246887e-02" rms="4.6510580182075500e-01" purity="6.3452410697937012e-01" nType="-99"/>
        </Node>
        <Node pos="r" depth="1" NCoef="0" IVar="1" Cut="9.0476191043853760e-01" cType="1" res="1.0339826345443726e-01" rms="2.2165933251380920e-01" purity="8.4981238842010498e-01" nType="0">
          <Node pos="l" depth="2" NCoef="0" IVar="-1" Cut="0.0000000000000000e+00" cType="1" res="-6.5258190035820007e-02" rms="8.5228197276592255e-02" purity="0.0000000000000000e+00" nType="-99"/>
          <Node pos="r" depth="2" NCoef="0" IVar="-1" Cut="0.0000000000000000e+00" cType="1" res="4.3480288237333298e-02" rms="2.0985215902328491e-01" purity="9.2649292945861816e-01" nType="-99"/>
        </Node>
      </Node>
    </BinaryTree>
    <BinaryTree type="DecisionTree" boostWeight="1.0000000000000000e+00" itree="15">
      <Node pos="s" depth="0" NCoef="0" IVar="2" Cut="3.0863275527954102e+00" cType="1" res="-6.9696150720119476e-02" rms="2.5303527712821960e-01" purity="3.2670277357101440e-01" nType="0">
        <Node pos="l" depth="1" NCoef="0" IVar="4" Cut="2.4071996212005615e+00" cType="1" res="-1.2932379543781281e-01" rms="2.4412542581558228e-01" purity="1.2878625094890594e-01" nType="0">
          <Node pos="l" depth="2" NCoef="0" IVar="-1" Cut="0.0000000000000000e+00" cType="1" res="-5.6317005306482315e-02" rms="1.9087296724319458e-01" purity="5.5646125227212906e-02" nType="-99"/>
          <Node pos="r" depth="2" NCoef="0" IVar="-1" Cut="0.0000000000000000e+00" cType="1" res="3.4302741289138794e-02" rms="3.8246524333953857e-01" purity="6.9675934314727783e-01" nType="-99"/>
        </Node>
        <Node pos="r" depth="1" NCoef="0" IVar="-1" Cut="0.0000000000000000e+00" cType="1" res="4.1157655417919159e-02" rms="1.8234127759933472e-01" purity="9.3385678529739380e-01" nType="-99"/>
      </Node>
    </BinaryTree>
    <BinaryTree type="DecisionTree" boostWeight="1.0000000000000000e+00" itree="16">
      <Node pos="s" depth="0" NCoef="0" IVar="1" Cut="8.0952382087707520e-01" cType="1" res="3.0309978872537613e-02" rms="2.9744151234626770e-01" purity="4.8483067750930786e-01" nType="0">
        <Node pos="l" depth="1" NCoef="0" IVar="4" Cut="1.9350715875625610e+00" cType="1" res="-1.2154792249202728e-01" rms="5.2877727895975113e-02" purity="0.0000000000000000e+00" nType="0">
          <Node pos="l" depth="2" NCoef="0" IVar="-1" Cut="0.0000000000000000e+00" cType="1" res="-5.6953586637973785e-02" rms="3.4560427069664001e-02" purity="0.0000000000000000e+00" nType="-99"/>
          <Node pos="r" depth="2" NCoef="0" IVar="-1" Cut="0.0000000000000000e+00" cType="1" res="-6.6516533493995667e-02" rms="8.9300334453582764e-02" purity="0.0000000000000000e+00" nType="-99"/>
        </Node>
        <Node pos="r" depth="1" NCoef="0" IVar="4" Cut="1.1418925523757935e+00" cType="1" res="8.9808508753776550e-02" rms="3.3085349202156067e-01" purity="6.7478924989700317e-01" nType="0">
          <Node pos="l" depth="2" NCoef="0" IVar="-1" Cut="0.0000000000000000e+00" cType="1" res="-3.7624742835760117e-02" rms="2.4082057178020477e-01" purity="2.6691034436225891e-01" nType="-99"/>
          <Node pos="r" depth="2" NCoef="0" IVar="-1" Cut="0.0000000000000000e+00" cType="1" res="4.1414324194192886e-02" rms="3.2929906249046326e-01" purity="7.7093297243118286e-01" nType="-99"/>
        </Node>
      </Node>
    </BinaryTree>
    <BinaryTree type="DecisionTree" boostWeight="1.0000000000000000e+00" itree="17">
      <Node pos="s" depth="0" NCoef="0" IVar="4" Cut="1.8674162626266479e+00" cType="1" res="-2.9684681445360184e-02" rms="2.3536436259746552e-01" purity="4.3337717652320862e-01" nType="0">
        <Node pos="l" depth="1" NCoef="0" IVar="2" Cut="2.7355699539184570e+00" cType="1" res="-1.0701104998588562e-01" rms="2.1052688360214233e-01" purity="1.9623750448226929e-01" nType="0">
          <Node pos="l" depth="2" NCoef="0" IVar="-1" Cut="0.0000000000000000e+00" cType="1" res="-5.2925810217857361e-02" rms="1.8157590925693512e-01" purity="4.9821887165307999e-02" nType="-99"/>
          <Node pos="r" depth="2" NCoef="0" IVar="-1" Cut="0.0000000000000000e+00" cType="1" res="1.5103835612535477e-02" rms="2.5840798020362854e-01" purity="8.3325368165969849e-01" nType="-99"/>
        </Node>
        <Node pos="r" depth="1" NCoef="0" IVar="1" Cut="9.0476191043853760e-01" cType="1" res="9.8055437207221985e-02" rms="2.1793651580810547e-01" purity="8.2512253522872925e-01" nType="0">
          <Node pos="l" depth="2" NCoef="0" IVar="-1" Cut="0.0000000000000000e+00" cType="1" res="-6.5407365560531616e-02" rms="9.0711191296577454e-02" purity="7.6090916991233826e-05" nType="-99"/>
          <Node pos="r" depth="2" NCoef="0" IVar="-1" Cut="0.0000000000000000e+00" cType="1" res="4.5644372701644897e-02" rms="2.0145188271999359e-01" purity="9.2639458179473877e-01" nType="-99"/>
        </Node>
      </Node>
    </BinaryTree>
    <BinaryTree type="DecisionTree" boostWeight="1.0000000000000000e+00" itree="18">
      <Node pos="s" depth="0" NCoef="0" IVar="1" Cut="8.0952382087707520e-01" cType="1" res="3.6331452429294586e-02" rms="2.9212516546249390e-01" purity="5.0770860910415649e-01" nType="0">
        <Node pos="l" depth="1" NCoef="0" IVar="4" Cut="1.7381170988082886e+00" cType="1" res="-1.0038948804140091e-01" rms="4.7154162079095840e-02" purity="0.0000000000000000e+00" nType="0">
          <Node pos="l" depth="2" NCoef="0" IVar="-1" Cut="0.0000000000000000e+00" cType="1" res="-5.5753339082002640e-02" rms="3.3636510372161865e-02" purity="0.0000000000000000e+00" nType="-99"/>
          <Node pos="r" depth="2" NCoef="0" IVar="-1" Cut="0.0000000000000000e+00" cType="1" res="-6.1350535601377487e-02" rms="6.9926477968692780e-02" purity="0.0000000000000000e+00" nType="-99"/>
        </Node>
        <Node pos="r" depth="1" NCoef="0" IVar="4" Cut="1.1396856307983398e+00" cType="1" res="8.6204364895820618e-02" rms="3.2611227035522461e-01" purity="6.9290995597839355e-01" nType="0">
          <Node pos="l" depth="2" NCoef="0" IVar="-1" Cut="0.0000000000000000e+00" cType="1" res="-2.9548302292823792e-02" rms="2.2716672718524933e-01" purity="3.0607959628105164e-01" nType="-99"/>
          <Node pos="r" depth="2" NCoef="0" IVar="-1" Cut="0.0000000000000000e+00" cType="1" res="4.2232193052768707e-02" rms="3.3179920911788940e-01" purity="7.8297722339630127e-01" nType="-99"/>
        </Node>
      </Node>
    </BinaryTree>
    <BinaryTree type="DecisionTree" boostWeight="1.0000000000000000e+00" itree="19">
      <Node pos="s" depth="0" NCoef="0" IVar="4" Cut="1.9048062562942505e+00" cType="1" res="8.3306999877095222e-03" rms="2.6493975520133972e-01" purity="4.7179964184761047e-01" nType="0">
        <Node pos="l" depth="1" NCoef="0" IVar="2" Cut="2.7511208057403564e+00" cType="1" res="-8.7076343595981598e-02" rms="2.1462637186050415e-01" purity="2.1776171028614044e-01" nType="0">
          <Node pos="l" depth="2" NCoef="0" IVar="-1" Cut="0.0000000000000000e+00" cType="1" res="-5.2346531301736832e-02" rms="1.8786662817001343e-01" purity="4.0262386202812195e-02" nType="-99"/>
          <Node pos="r" depth="2" NCoef="0" IVar="-1" Cut="0.0000000000000000e+00" cType="1" res="2.2735653445124626e-02" rms="2.4051095545291901e-01" purity="8.6489254236221313e-01" nType="-99"/>
        </Node>
        <Node pos="r" depth="1" NCoef="0" IVar="1" Cut="8.0952382087707520e-01" cType="1" res="1.5286143124103546e-01" rms="2.6845252513885498e-01" purity="8.5663807392120361e-01" nType="0">
          <Node pos="l" depth="2" NCoef="0" IVar="-1" Cut="0.0000000000000000e+00" cType="1" res="-6.1284832656383514e-02" rms="7.0288643240928650e-02" purity="0.0000000000000000e+00" nType="-99"/>
          <Node pos="r" depth="2" NCoef="0" IVar="-1" Cut="0.0000000000000000e+00" cType="1" res="6.1479389667510986e-02" rms="2.6309126615524292e-01" purity="9.2966395616531372e-01" nType="-99"/>
        </Node>
      </Node>
    </BinaryTree>
    <BinaryTree type="DecisionTree" boostWeight="1.0000000000000000e+00" itree="20">
      <Node pos="s" depth="0" NCoef="0" IVar="1" Cut="9.0476191043853760e-01" cType="1" res="6.2192820012569427e-02" rms="3.0563822388648987e-01" purity="5.0295919179916382e-01" nType="0">
        <Node pos="l" depth="1" NCoef="0" IVar="4" Cut="2.0174877643585205e+00" cType="1" res="-8.9269123971462250e-02" rms="5.1486756652593613e-02" purity="0.0000000000000000e+00" nType="0">
          <Node pos="l" depth="2" NCoef="0" IVar="-1" Cut="0.0000000000000000e+00" cType="1" res="-5.5481530725955963e-02" rms="3.7546850740909576e-02" purity="0.0000000000000000e+00" nType="-99"/>
          <Node pos="r" depth="2" NCoef="0" IVar="-1" Cut="0.0000000000000000e+00" cType="1" res="-6.4022451639175415e-02" rms="9.1716021299362183e-02" purity="0.0000000000000000e+00" nType="-99"/>
        </Node>
        <Node pos="r" depth="1" NCoef="0" IVar="1" Cut="9.5919370651245117e-01" cType="1" res="1.2816748023033142e-01" rms="3.4439057111740112e-01" purity="7.2204107046127319e-01" nType="0">
          <Node pos="l" depth="2" NCoef="0" IVar="-1" Cut="0.0000000000000000e+00" cType="1" res="-6.4383424818515778e-02" rms="1.7881430685520172e-01" purity="3.0984459444880486e-02" nType="-99"/>
          <Node pos="r" depth="2" NCoef="0" IVar="-1" Cut="0.0000000000000000e+00" cType="1" res="4.5267723500728607e-02" rms="3.4186404943466187e-01" purity="7.7097433805465698e-01" nType="-99"/>
        </Node>
      </Node>
    </BinaryTree>
    <BinaryTree type="DecisionTree" boostWeight="1.0000000000000000e+00" itree="21">
      <Node pos="s" depth="0" NCoef="0" IVar="1" Cut="8.0952382087707520e-01" cType="1" res="4.5920453965663910e-02" rms="2.8426191210746765e-01" purity="5.0329756736755371e-01" nType="0">
        <Node pos="l" depth="1" NCoef="0" IVar="4" Cut="1.9350723028182983e+00" cType="1" res="-7.5034126639366150e-02" rms="3.9248742163181305e-02" purity="0.0000000000000000e+00" nType="0">
          <Node pos="l" depth="2" NCoef="0" IVar="-1" Cut="0.0000000000000000e+00" cType="1" res="-5.4524831473827362e-02" rms="3.0911767855286598e-02" purity="0.0000000000000000e+00" nType="-99"/>
          <Node pos="r" depth="2" NCoef="0" IVar="-1" Cut="0.0000000000000000e+00" cType="1" res="-5.9268809854984283e-02" rms="6.0992889106273651e-02" purity="0.0000000000000000e+00" nType="-99"/>
        </Node>
        <Node pos="r" depth="1" NCoef="0" IVar="1" Cut="9.9093449115753174e-01" cType="1" res="9.0913549065589905e-02" rms="3.2066082954406738e-01" purity="6.9051587581634521e-01" nType="0">
          <Node pos="l" depth="2" NCoef="0" IVar="-1" Cut="0.0000000000000000e+00" cType="1" res="-1.8408155068755150e-02" rms="3.1309086084365845e-01" purity="2.5859519839286804e-01" nType="-99"/>
          <Node pos="r" depth="2" NCoef="0" IVar="-1" Cut="0.0000000000000000e+00" cType="1" res="4.5270476490259171e-02" rms="3.0558100342750549e-01" purity="8.4719681739807129e-01" nType="-99"/>
        </Node>
      </Node>
    </BinaryTree>
    <BinaryTree type="DecisionTree" boostWeight="1.0000000000000000e+00" itree="22">
      <Node pos="s" depth="0" NCoef="0" IVar="2" Cut="2.7511208057403564e+00" cType="1" res="-1.0208513587713242e-02" rms="2.1215079724788666e-01" purity="5.0928109884262085e-01" nType="0">
        <Node pos="l" depth="1" NCoef="0" IVar="2" Cut="2.2269029617309570e+00" cType="1" res="-8.2265548408031464e-02" rms="2.3327398300170898e-01" purity="1.4966480433940887e-01" nType="0">
          <Node pos="l" depth="2" NCoef="0" IVar="-1" Cut="0.0000000000000000e+00" cType="1" res="-5.3040165454149246e-02" rms="2.0106969773769379e-01" purity="5.9017553925514221e-02" nType="-99"/>
          <Node pos="r" depth="2" NCoef="0" IVar="-1" Cut="0.0000000000000000e+00" cType="1" res="4.3859288096427917e-02" rms="2.6844534277915955e-01" purity="7.3555028438568115e-01" nType="-99"/>
        </Node>
        <Node pos="r" depth="1" NCoef="0" IVar="-1" Cut="0.0000000000000000e+00" cType="1" res="4.2117580771446228e-02" rms="1.3680504262447357e-01" purity="9.5786541700363159e-01" nType="-99"/>
      </Node>
    </BinaryTree>
    <BinaryTree type="DecisionTree" boostWeight="1.0000000000000000e+00" itree="23">
      <Node pos="s" depth="0" NCoef="0" IVar="1" Cut="9.0476191043853760e-01" cType="1" res="5.3308486938476562e-02" rms="2.7852052450180054e-01" purity="5.5333316326141357e-01" nType="0">
        <Node pos="l" depth="1" NCoef="0" IVar="4" Cut="1.8626106977462769e+00" cType="1" res="-6.8775698542594910e-02" rms="4.6194911003112793e-02" purity="3.6192559491610155e-06" nType="0">
          <Node pos="l" depth="2" NCoef="0" IVar="-1" Cut="0.0000000000000000e+00" cType="1" res="-5.4512880742549896e-02" rms="3.5959947854280472e-02" purity="0.0000000000000000e+00" nType="-99"/>
          <Node pos="r" depth="2" NCoef="0" IVar="-1" Cut="0.0000000000000000e+00" cType="1" res="-5.9759441763162613e-02" rms="7.3400333523750305e-02" purity="2.9569117032224312e-05" nType="-99"/>
        </Node>
        <Node pos="r" depth="1" NCoef="0" IVar="4" Cut="1.6459684371948242e+00" cType="1" res="9.8710261285305023e-02" rms="3.1308901309967041e-01" purity="7.5911033153533936e-01" nType="0">
          <Node pos="l" depth="2" NCoef="0" IVar="-1" Cut="0.0000000000000000e+00" cType="1" res="1.2310530059039593e-02" rms="3.0831187963485718e-01" purity="6.3199144601821899e-01" nType="-99"/>
          <Node pos="r" depth="2" NCoef="0" IVar="-1" Cut="0.0000000000000000e+00" cType="1" res="6.0182113200426102e-02" rms="3.0101880431175232e-01" purity="9.0588647127151489e-01" nType="-99"/>
        </Node>
      </Node>
    </BinaryTree>
    <BinaryTree type="DecisionTree" boostWeight="1.0000000000000000e+00" itree="24">
      <Node pos="s" depth="0" NCoef="0" IVar="1" Cut="9.0476191043853760e-01" cType="1" res="1.1949334293603897e-01" rms="3.0083212256431580e-01" purity="6.1459368467330933e-01" nType="0">
        <Node pos="l" depth="1" NCoef="0" IVar="4" Cut="1.9350723028182983e+00" cType="1" res="-6.2224082648754120e-02" rms="4.2426768690347672e-02" purity="0.0000000000000000e+00" nType="0">
          <Node pos="l" depth="2" NCoef="0" IVar="-1" Cut="0.0000000000000000e+00" cType="1" res="-5.4105501621961594e-02" rms="3.3156581223011017e-02" purity="0.0000000000000000e+00" nType="-99"/>
          <Node pos="r" depth="2" NCoef="0" IVar="-1" Cut="0.0000000000000000e+00" cType="1" res="-5.9263203293085098e-02" rms="7.0662967860698700e-02" purity="0.0000000000000000e+00" nType="-99"/>
        </Node>
        <Node pos="r" depth="1" NCoef="0" IVar="4" Cut="1.1486831903457642e+00" cType="1" res="1.7527036368846893e-01" rms="3.2323229312896729e-01" purity="8.0323934555053711e-01" nType="0">
          <Node pos="l" depth="2" NCoef="0" IVar="-1" Cut="0.0000000000000000e+00" cType="1" res="-1.2563699856400490e-02" rms="2.3482669889926910e-01" purity="4.7108906507492065e-01" nType="-99"/>
          <Node pos="r" depth="2" NCoef="0" IVar="-1" Cut="0.0000000000000000e+00" cType="1" res="6.4673580229282379e-02" rms="3.2202434539794922e-01" purity="8.7010514736175537e-01" nType="-99"/>
        </Node>
      </Node>
    </BinaryTree>
    <BinaryTree type="DecisionTree" boostWeight="1.0000000000000000e+00" itree="25">
      <Node pos="s" depth="0" NCoef="0" IVar="2" Cut="1.9308065176010132e+00" cType="1" res="-2.9790949076414108e-02" rms="2.3203256726264954e-01" purity="4.1031333804130554e-01" nType="0">
        <Node pos="l" depth="1" NCoef="0" IVar="1" Cut="9.0476191043853760e-01" cType="1" res="-9.4035863876342773e-02" rms="2.2535514831542969e-01" purity="8.3660840988159180e-02" nType="0">
          <Node pos="l" depth="2" NCoef="0" IVar="-1" Cut="0.0000000000000000e+00" cType="1" res="-2.6729777455329895e-02" rms="1.2966972589492798e-01" purity="3.1420201063156128e-02" nType="-99"/>
          <Node pos="r" depth="2" NCoef="0" IVar="-1" Cut="0.0000000000000000e+00" cType="1" res="-5.1764898002147675e-02" rms="2.9006749391555786e-01" purity="1.5756355226039886e-01" nType="-99"/>
        </Node>
        <Node pos="r" depth="1" NCoef="0" IVar="4" Cut="1.5267722606658936e+00" cType="1" res="5.5295728147029877e-02" rms="2.1255110204219818e-01" purity="8.4293556213378906e-01" nType="0">
          <Node pos="l" depth="2" NCoef="0" IVar="-1" Cut="0.0000000000000000e+00" cType="1" res="-1.8361786380410194e-02" rms="2.8007555007934570e-01" purity="5.9969812631607056e-01" nType="-99"/>
          <Node pos="r" depth="2" NCoef="0" IVar="-1" Cut="0.0000000000000000e+00" cType="1" res="4.7046530991792679e-02" rms="1.6075409948825836e-01" purity="9.4287174940109253e-01" nType="-99"/>
        </Node>
      </Node>
    </BinaryTree>
    <BinaryTree type="DecisionTree" boostWeight="1.0000000000000000e+00" itree="26">
      <Node pos="s" depth="0" NCoef="0" IVar="2" Cut="2.7355663776397705e+00" cType="1" res="-9.2912847176194191e-03" rms="2.4354240298271179e-01" purity="4.5217779278755188e-01" nType="0">
        <Node pos="l" depth="1" NCoef="0" IVar="2" Cut="1.1722364425659180e+00" cType="1" res="-4.2137868702411652e-02" rms="2.7742451429367065e-01" purity="1.6580256819725037e-01" nType="0">
          <Node pos="l" depth="2" NCoef="0" IVar="-1" Cut="0.0000000000000000e+00" cType="1" res="-4.7422125935554504e-02" rms="1.9566044211387634e-01" purity="6.7614153027534485e-02" nType="-99"/>
          <Node pos="r" depth="2" NCoef="0" IVar="-1" Cut="0.0000000000000000e+00" cType="1" res="1.8113818019628525e-02" rms="3.6546286940574646e-01" purity="3.4334892034530640e-01" nType="-99"/>
        </Node>
        <Node pos="r" depth="1" NCoef="0" IVar="-1" Cut="0.0000000000000000e+00" cType="1" res="3.0851423740386963e-02" rms="1.5510262548923492e-01" purity="9.4280344247817993e-01" nType="-99"/>
      </Node>
    </BinaryTree>
    <BinaryTree type="DecisionTree" boostWeight="1.0000000000000000e+00" itree="27">
      <Node pos="s" depth="0" NCoef="0" IVar="4" Cut="2.4525988101959229e+00" cType="1" res="-8.4418645128607750e-03" rms="2.5196564197540283e-01" purity="4.3356269598007202e-01" nType="0">
        <Node pos="l" depth="1" NCoef="0" IVar="2" Cut="2.7355737686157227e+00" cType="1" res="-2.6650451123714447e-02" rms="2.3687741160392761e-01" purity="3.8250884413719177e-01" nType="0">
          <Node pos="l" depth="2" NCoef="0" IVar="-1" Cut="0.0000000000000000e+00" cType="1" res="-3.0860584229230881e-02" rms="2.6002794504165649e-01" purity="8.7031684815883636e-02" nType="-99"/>
          <Node pos="r" depth="2" NCoef="0" IVar="-1" Cut="0.0000000000000000e+00" cType="1" res="2.5897713378071785e-02" rms="1.6757181286811829e-01" purity="9.3261802196502686e-01" nType="-99"/>
        </Node>
        <Node pos="r" depth="1" NCoef="0" IVar="-1" Cut="0.0000000000000000e+00" cType="1" res="4.4567376375198364e-02" rms="3.1289038062095642e-01" purity="8.2228749990463257e-01" nType="-99"/>
      </Node>
    </BinaryTree>
    <BinaryTree type="DecisionTree" boostWeight="1.0000000000000000e+00" itree="28">
      <Node pos="s" depth="0" NCoef="0" IVar="4" Cut="1.1793762445449829e+00" cType="1" res="1.8556851893663406e-02" rms="2.9653406143188477e-01" purity="4.2761248350143433e-01" nType="0">
        <Node pos="l" depth="1" NCoef="0" IVar="4" Cut="1.1527676582336426e+00" cType="1" res="7.8896842896938324e-02" rms="3.3745342493057251e-01" purity="3.1280779838562012e-01" nType="0">
          <Node pos="l" depth="2" NCoef="0" IVar="-1" Cut="0.0000000000000000e+00" cType="1" res="1.1756938882172108e-02" rms="2.7658465504646301e-01" purity="2.6074901223182678e-01" nType="-99"/>
          <Node pos="r" depth="2" NCoef="0" IVar="-1" Cut="0.0000000000000000e+00" cType="1" res="1.4666068553924561e-01" rms="4.5146843791007996e-01" purity="6.3904422521591187e-01" nType="-99"/>
        </Node>
        <Node pos="r" depth="1" NCoef="0" IVar="4" Cut="2.5097351074218750e+00" cType="1" res="-2.0196860656142235e-02" rms="2.5967395305633545e-01" purity="5.0134646892547607e-01" nType="0">
          <Node pos="l" depth="2" NCoef="0" IVar="-1" Cut="0.0000000000000000e+00" cType="1" res="-2.8509646654129028e-02" rms="2.3023371398448944e-01" purity="4.0698084235191345e-01" nType="-99"/>
          <Node pos="r" depth="2" NCoef="0" IVar="-1" Cut="0.0000000000000000e+00" cType="1" res="5.1719531416893005e-02" rms="3.2233047485351562e-01" purity="8.5546725988388062e-01" nType="-99"/>
        </Node>
      </Node>
    </BinaryTree>
    <BinaryTree type="DecisionTree" boostWeight="1.0000000000000000e+00" itree="29">
      <Node pos="s" depth="0" NCoef="0" IVar="1" Cut="8.0952382087707520e-01" cType="1" res="2.7459058910608292e-02" rms="2.3771479725837708e-01" purity="5.7049304246902466e-01" nType="0">
        <Node pos="l" depth="1" NCoef="0" IVar="2" Cut="1.4336811304092407e+00" cType="1" res="-4.5912124216556549e-02" rms="3.6562189459800720e-02" purity="0.0000000000000000e+00" nType="0">
          <Node pos="l" depth="2" NCoef="0" IVar="-1" Cut="0.0000000000000000e+00" cType="1" res="-5.2681844681501389e-02" rms="2.1468533203005791e-02" purity="0.0000000000000000e+00" nType="-99"/>
          <Node pos="r" depth="2" NCoef="0" IVar="-1" Cut="0.0000000000000000e+00" cType="1" res="-5.7200904935598373e-02" rms="6.2233414500951767e-02" purity="0.0000000000000000e+00" nType="-99"/>
        </Node>
        <Node pos="r" depth="1" NCoef="0" IVar="4" Cut="1.1486831903457642e+00" cType="1" res="4.9861837178468704e-02" rms="2.6684924960136414e-01" purity="7.4468445777893066e-01" nType="0">
          <Node pos="l" depth="2" NCoef="0" IVar="-1" Cut="0.0000000000000000e+00" cType="1" res="-7.5460430234670639e-03" rms="2.3475427925586700e-01" purity="4.2263773083686829e-01" nType="-99"/>
          <Node pos="r" depth="2" NCoef="0" IVar="-1" Cut="0.0000000000000000e+00" cType="1" res="3.1371667981147766e-02" rms="2.7145540714263916e-01" purity="8.2377880811691284e-01" nType="-99"/>
        </Node>
      </Node>
    </BinaryTree>
    <BinaryTree type="DecisionTree" boostWeight="1.0000000000000000e+00" itree="30">
      <Node pos="s" depth="0" NCoef="0" IVar="4" Cut="1.7381111383438110e+00" cType="1" res="4.6891629695892334e-02" rms="2.7571746706962585e-01" purity="5.2161157131195068e-01" nType="0">
        <Node pos="l" depth="1" NCoef="0" IVar="4" Cut="1.1394566297531128e+00" cType="1" res="-7.8932037577033043e-03" rms="2.4178798496723175e-01" purity="3.7096789479255676e-01" nType="0">
          <Node pos="l" depth="2" NCoef="0" IVar="-1" Cut="0.0000000000000000e+00" cType="1" res="2.1823322400450706e-02" rms="2.7597644925117493e-01" purity="3.3037722110748291e-01" nType="-99"/>
          <Node pos="r" depth="2" NCoef="0" IVar="-1" Cut="0.0000000000000000e+00" cType="1" res="-3.0241558328270912e-02" rms="1.9679781794548035e-01" purity="4.0652027726173401e-01" nType="-99"/>
        </Node>
        <Node pos="r" depth="1" NCoef="0" IVar="4" Cut="1.9775738716125488e+00" cType="1" res="1.4574825763702393e-01" rms="3.0416357517242432e-01" purity="7.9344087839126587e-01" nType="0">
          <Node pos="l" depth="2" NCoef="0" IVar="-1" Cut="0.0000000000000000e+00" cType="1" res="7.4486523866653442e-02" rms="3.1036153435707092e-01" purity="7.8943759202957153e-01" nType="-99"/>
          <Node pos="r" depth="2" NCoef="0" IVar="-1" Cut="0.0000000000000000e+00" cType="1" res="3.1018428504467010e-02" rms="2.6997986435890198e-01" purity="7.9597347974777222e-01" nType="-99"/>
        </Node>
      </Node>
    </BinaryTree>
    <BinaryTree type="DecisionTree" boostWeight="1.0000000000000000e+00" itree="31">
      <Node pos="s" depth="0" NCoef="0" IVar="4" Cut="1.9350715875625610e+00" cType="1" res="3.9036073721945286e-03" rms="2.5250497460365295e-01" purity="4.6221652626991272e-01" nType="0">
        <Node pos="l" depth="1" NCoef="0" IVar="2" Cut="1.7008520364761353e+00" cType="1" res="-3.8713030517101288e-02" rms="2.1819230914115906e-01" purity="2.9321104288101196e-01" nType="0">
          <Node pos="l" depth="2" NCoef="0" IVar="-1" Cut="0.0000000000000000e+00" cType="1" res="-4.7316066920757294e-02" rms="1.8111570179462433e-01" purity="3.2772269099950790e-02" nType="-99"/>
          <Node pos="r" depth="2" NCoef="0" IVar="-1" Cut="0.0000000000000000e+00" cType="1" res="1.1231923475861549e-02" rms="2.5446844100952148e-01" purity="7.1339607238769531e-01" nType="-99"/>
        </Node>
        <Node pos="r" depth="1" NCoef="0" IVar="4" Cut="2.1446070671081543e+00" cType="1" res="9.6425257623195648e-02" rms="2.9380172491073608e-01" purity="8.2913112640380859e-01" nType="0">
          <Node pos="l" depth="2" NCoef="0" IVar="-1" Cut="0.0000000000000000e+00" cType="1" res="8.5908100008964539e-02" rms="3.4944000840187073e-01" purity="8.2070660591125488e-01" nType="-99"/>
          <Node pos="r" depth="2" NCoef="0" IVar="-1" Cut="0.0000000000000000e+00" cType="1" res="1.9353326410055161e-02" rms="2.3529213666915894e-01" purity="8.3344084024429321e-01" nType="-99"/>
        </Node>
      </Node>
    </BinaryTree>
    <BinaryTree type="DecisionTree" boostWeight="1.0000000000000000e+00" itree="32">
      <Node pos="s" depth="0" NCoef="0" IVar="2" Cut="3.0863275527954102e+00" cType="1" res="-1.2720167636871338e-02" rms="2.0851239562034607e-01" purity="4.8054111003875732e-01" nType="0">
        <Node pos="l" depth="1" NCoef="0" IVar="2" Cut="1.9102594852447510e+00" cType="1" res="-4.9499951303005219e-02" rms="2.3176494240760803e-01" purity="2.1524600684642792e-01" nType="0">
          <Node pos="l" depth="2" NCoef="0" IVar="-1" Cut="0.0000000000000000e+00" cType="1" res="-5.6349061429500580e-02" rms="1.8914996087551117e-01" purity="3.8628887385129929e-02" nType="-99"/>
          <Node pos="r" depth="2" NCoef="0" IVar="-1" Cut="0.0000000000000000e+00" cType="1" res="2.7693768963217735e-02" rms="2.8559783101081848e-01" purity="7.1327906847000122e-01" nType="-99"/>
        </Node>
        <Node pos="r" depth="1" NCoef="0" IVar="-1" Cut="0.0000000000000000e+00" cType="1" res="3.7420235574245453e-02" rms="1.3369701802730560e-01" purity="9.6381652355194092e-01" nType="-99"/>
      </Node>
    </BinaryTree>
    <BinaryTree type="DecisionTree" boostWeight="1.0000000000000000e+00" itree="33">
      <Node pos="s" depth="0" NCoef="0" IVar="2" Cut="1.7104444503784180e+00" cType="1" res="1.3254777528345585e-02" rms="2.3513984680175781e-01" purity="5.0041717290878296e-01" nType="0">
        <Node pos="l" depth="1" NCoef="0" IVar="2" Cut="8.1446218490600586e-01" cType="1" res="-2.6118552312254906e-02" rms="2.5910949707031250e-01" purity="1.3794431090354919e-01" nType="0">
          <Node pos="l" depth="2" NCoef="0" IVar="-1" Cut="0.0000000000000000e+00" cType="1" res="-6.2479857355356216e-02" rms="1.5933266282081604e-01" purity="1.0079097002744675e-02" nType="-99"/>
          <Node pos="r" depth="2" NCoef="0" IVar="-1" Cut="0.0000000000000000e+00" cType="1" res="2.4601977318525314e-02" rms="3.2594817876815796e-01" purity="2.9337587952613831e-01" nType="-99"/>
        </Node>
        <Node pos="r" depth="1" NCoef="0" IVar="1" Cut="9.0476191043853760e-01" cType="1" res="5.1170840859413147e-02" rms="2.0236532390117645e-01" purity="8.4947437047958374e-01" nType="0">
          <Node pos="l" depth="2" NCoef="0" IVar="-1" Cut="0.0000000000000000e+00" cType="1" res="-5.9978771954774857e-02" rms="8.2938566803932190e-02" purity="0.0000000000000000e+00" nType="-99"/>
          <Node pos="r" depth="2" NCoef="0" IVar="-1" Cut="0.0000000000000000e+00" cType="1" res="3.3131785690784454e-02" rms="2.0511917769908905e-01" purity="9.2588430643081665e-01" nType="-99"/>
        </Node>
      </Node>
    </BinaryTree>
    <BinaryTree type="DecisionTree" boostWeight="1.0000000000000000e+00" itree="34">
      <Node pos="s" depth="0" NCoef="0" IVar="1" Cut="9.0476191043853760e-01" cType="1" res="7.2353766299784184e-03" rms="2.3641055822372437e-01" purity="4.9872204661369324e-01" nType="0">
        <Node pos="l" depth="1" NCoef="0" IVar="4" Cut="1.9350723028182983e+00" cType="1" res="-4.0207803249359131e-02" rms="4.3441381305456161e-02" purity="3.5982650388177717e-06" nType="0">
          <Node pos="l" depth="2" NCoef="0" IVar="-1" Cut="0.0000000000000000e+00" cType="1" res="-5.3553540259599686e-02" rms="3.3163923770189285e-02" purity="0.0000000000000000e+00" nType="-99"/>
          <Node pos="r" depth="2" NCoef="0" IVar="-1" Cut="0.0000000000000000e+00" cType="1" res="-5.8981265872716904e-02" rms="7.4819654226303101e-02" purity="3.4394997783238068e-05" nType="-99"/>
        </Node>
        <Node pos="r" depth="1" NCoef="0" IVar="1" Cut="9.8639768362045288e-01" cType="1" res="2.8242176398634911e-02" rms="2.7993443608283997e-01" purity="7.1954369544982910e-01" nType="0">
          <Node pos="l" depth="2" NCoef="0" IVar="-1" Cut="0.0000000000000000e+00" cType="1" res="-3.4137975424528122e-02" rms="2.7867561578750610e-01" purity="1.8105195462703705e-01" nType="-99"/>
          <Node pos="r" depth="2" NCoef="0" IVar="-1" Cut="0.0000000000000000e+00" cType="1" res="2.8031334280967712e-02" rms="2.7334600687026978e-01" purity="8.3111774921417236e-01" nType="-99"/>
        </Node>
      </Node>
    </BinaryTree>
    <BinaryTree type="DecisionTree" boostWeight="1.0000000000000000e+00" itree="35">
      <Node pos="s" depth="0" NCoef="0" IVar="4" Cut="2.5762219429016113e+00" cType="1" res="3.3050442580133677e-03" rms="2.0910932123661041e-01" purity="5.2016288042068481e-01" nType="0">
        <Node pos="l" depth="1" NCoef="0" IVar="2" Cut="1.8427228927612305e+00" cType="1" res="-1.3201263733208179e-02" rms="1.9500671327114105e-01" purity="4.6545690298080444e-01" nType="0">
          <Node pos="l" depth="2" NCoef="0" IVar="-1" Cut="0.0000000000000000e+00" cType="1" res="-3.9352178573608398e-02" rms="1.8809209764003754e-01" purity="5.3812649101018906e-02" nType="-99"/>
          <Node pos="r" depth="2" NCoef="0" IVar="-1" Cut="0.0000000000000000e+00" cType="1" res="2.1366402506828308e-02" rms="1.9003623723983765e-01" purity="8.6426943540573120e-01" nType="-99"/>
        </Node>
        <Node pos="r" depth="1" NCoef="0" IVar="-1" Cut="0.0000000000000000e+00" cType="1" res="4.8681717365980148e-02" rms="2.6071667671203613e-01" purity="8.9038753509521484e-01" nType="-99"/>
      </Node>
    </BinaryTree>
    <BinaryTree type="DecisionTree" boostWeight="1.0000000000000000e+00" itree="36">
      <Node pos="s" depth="0" NCoef="0" IVar="1" Cut="8.0952382087707520e-01" cType="1" res="7.3597818613052368e-02" rms="3.0689167976379395e-01" purity="5.4885023832321167e-01" nType="0">
        <Node pos="l" depth="1" NCoef="0" IVar="2" Cut="1.9659373760223389e+00" cType="1" res="-3.1014110893011093e-02" rms="3.3371750265359879e-02" purity="0.0000000000000000e+00" nType="0">
          <Node pos="l" depth="2" NCoef="0" IVar="-1" Cut="0.0000000000000000e+00" cType="1" res="-5.2098821848630905e-02" rms="1.9511245191097260e-02" purity="0.0000000000000000e+00" nType="-99"/>
          <Node pos="r" depth="2" NCoef="0" IVar="-1" Cut="0.0000000000000000e+00" cType="1" res="-5.8114457875490189e-02" rms="6.8050868809223175e-02" purity="0.0000000000000000e+00" nType="-99"/>
        </Node>
        <Node pos="r" depth="1" NCoef="0" IVar="1" Cut="8.6403316259384155e-01" cType="1" res="1.0772658884525299e-01" rms="3.4613636136054993e-01" purity="7.2790795564651489e-01" nType="0">
          <Node pos="l" depth="2" NCoef="0" IVar="-1" Cut="0.0000000000000000e+00" cType="1" res="1.3115660846233368e-01" rms="3.6264196038246155e-01" purity="6.4691805839538574e-01" nType="-99"/>
          <Node pos="r" depth="2" NCoef="0" IVar="-1" Cut="0.0000000000000000e+00" cType="1" res="4.3697349727153778e-02" rms="3.3743819594383240e-01" purity="7.3213601112365723e-01" nType="-99"/>
        </Node>
      </Node>
    </BinaryTree>
    <BinaryTree type="DecisionTree" boostWeight="1.0000000000000000e+00" itree="37">
      <Node pos="s" depth="0" NCoef="0" IVar="1" Cut="9.0476191043853760e-01" cType="1" res="5.5537525564432144e-02" rms="2.9687762260437012e-01" purity="5.1559662818908691e-01" nType="0">
        <Node pos="l" depth="1" NCoef="0" IVar="4" Cut="1.9048061370849609e+00" cType="1" res="-3.3636480569839478e-02" rms="4.2910169810056686e-02" purity="4.5177844185673166e-06" nType="0">
          <Node pos="l" depth="2" NCoef="0" IVar="-1" Cut="0.0000000000000000e+00" cType="1" res="-5.3314693272113800e-02" rms="3.0910464003682137e-02" purity="0.0000000000000000e+00" nType="-99"/>
          <Node pos="r" depth="2" NCoef="0" IVar="-1" Cut="0.0000000000000000e+00" cType="1" res="-5.9492517262697220e-02" rms="8.0235004425048828e-02" purity="4.0279475797433406e-05" nType="-99"/>
        </Node>
        <Node pos="r" depth="1" NCoef="0" IVar="1" Cut="9.5918464660644531e-01" cType="1" res="9.2869475483894348e-02" rms="3.4574601054191589e-01" purity="7.3144495487213135e-01" nType="0">
          <Node pos="l" depth="2" NCoef="0" IVar="-1" Cut="0.0000000000000000e+00" cType="1" res="-6.8691499531269073e-02" rms="2.1908693015575409e-01" purity="2.5476379320025444e-02" nType="-99"/>
          <Node pos="r" depth="2" NCoef="0" IVar="-1" Cut="0.0000000000000000e+00" cType="1" res="4.7016911208629608e-02" rms="3.4647762775421143e-01" purity="7.7922219038009644e-01" nType="-99"/>
        </Node>
      </Node>
    </BinaryTree>
    <BinaryTree type="DecisionTree" boostWeight="1.0000000000000000e+00" itree="38">
      <Node pos="s" depth="0" NCoef="0" IVar="4" Cut="1.1793771982192993e+00" cType="1" res="1.3170690275728703e-02" rms="2.7591159939765930e-01" purity="4.5337185263633728e-01" nType="0">
        <Node pos="l" depth="1" NCoef="0" IVar="4" Cut="1.0330363512039185e+00" cType="1" res="7.0306271314620972e-02" rms="3.1943908333778381e-01" purity="3.5802432894706726e-01" nType="0">
          <Node pos="l" depth="2" NCoef="0" IVar="-1" Cut="0.0000000000000000e+00" cType="1" res="-5.9749979525804520e-02" rms="1.4811392128467560e-01" purity="7.8890405595302582e-02" nType="-99"/>
          <Node pos="r" depth="2" NCoef="0" IVar="-1" Cut="0.0000000000000000e+00" cType="1" res="7.8436553478240967e-02" rms="3.5914745926856995e-01" purity="5.2623111009597778e-01" nType="-99"/>
        </Node>
        <Node pos="r" depth="1" NCoef="0" IVar="4" Cut="1.9776073694229126e+00" cType="1" res="-2.5002831593155861e-02" rms="2.3489390313625336e-01" purity="5.1707559823989868e-01" nType="0">
          <Node pos="l" depth="2" NCoef="0" IVar="-1" Cut="0.0000000000000000e+00" cType="1" res="-3.1925141811370850e-02" rms="2.1994768083095551e-01" purity="3.5981938242912292e-01" nType="-99"/>
          <Node pos="r" depth="2" NCoef="0" IVar="-1" Cut="0.0000000000000000e+00" cType="1" res="8.4961196407675743e-03" rms="2.5293478369712830e-01" purity="7.7359849214553833e-01" nType="-99"/>
        </Node>
      </Node>
    </BinaryTree>
    <BinaryTree type="DecisionTree" boostWeight="1.0000000000000000e+00" itree="39">
      <Node pos="s" depth="0" NCoef="0" IVar="1" Cut="9.0476191043853760e-01" cType="1" res="1.3753902167081833e-02" rms="2.5593847036361694e-01" purity="5.0880509614944458e-01" nType="0">
        <Node pos="l" depth="1" NCoef="0" IVar="4" Cut="1.9047998189926147e+00" cType="1" res="-3.0072445049881935e-02" rms="3.9505787193775177e-02" purity="0.0000000000000000e+00" nType="0">
          <Node pos="l" depth="2" NCoef="0" IVar="-1" Cut="0.0000000000000000e+00" cType="1" res="-5.2949745208024979e-02" rms="2.7659365907311440e-02" purity="0.0000000000000000e+00" nType="-99"/>
          <Node pos="r" depth="2" NCoef="0" IVar="-1" Cut="0.0000000000000000e+00" cType="1" res="-5.8936595916748047e-02" rms="7.5797714293003082e-02" purity="0.0000000000000000e+00" nType="-99"/>
        </Node>
        <Node pos="r" depth="1" NCoef="0" IVar="1" Cut="9.8640012741088867e-01" cType="1" res="3.2680973410606384e-02" rms="3.0320265889167786e-01" purity="7.2854036092758179e-01" nType="0">
          <Node pos="l" depth="2" NCoef="0" IVar="-1" Cut="0.0000000000000000e+00" cType="1" res="-4.0887035429477692e-02" rms="3.0753868818283081e-01" purity="1.4846442639827728e-01" nType="-99"/>
          <Node pos="r" depth="2" NCoef="0" IVar="-1" Cut="0.0000000000000000e+00" cType="1" res="3.1951144337654114e-02" rms="2.9547983407974243e-01" purity="8.3959943056106567e-01" nType="-99"/>
        </Node>
      </Node>
    </BinaryTree>
    <BinaryTree type="DecisionTree" boostWeight="1.0000000000000000e+00" itree="40">
      <Node pos="s" depth="0" NCoef="0" IVar="4" Cut="1.7381482124328613e+00" cType="1" res="1.2248504906892776e-02" rms="2.5254464149475098e-01" purity="4.4927620887756348e-01" nType="0">
        <Node pos="l" depth="1" NCoef="0" IVar="2" Cut="1.8427358865737915e+00" cType="1" res="-3.5459727048873901e-02" rms="1.9600208103656769e-01" purity="3.1791344285011292e-01" nType="0">
          <Node pos="l" depth="2" NCoef="0" IVar="-1" Cut="0.0000000000000000e+00" cType="1" res="-4.5336920768022537e-02" rms="1.5923038125038147e-01" purity="3.1429152935743332e-02" nType="-99"/>
          <Node pos="r" depth="2" NCoef="0" IVar="-1" Cut="0.0000000000000000e+00" cType="1" res="2.3517522495239973e-03" rms="2.3798510432243347e-01" purity="7.7283477783203125e-01" nType="-99"/>
        </Node>
        <Node pos="r" depth="1" NCoef="0" IVar="4" Cut="1.9776420593261719e+00" cType="1" res="1.1439161747694016e-01" rms="3.2058137655258179e-01" purity="7.3052334785461426e-01" nType="0">
          <Node pos="l" depth="2" NCoef="0" IVar="-1" Cut="0.0000000000000000e+00" cType="1" res="7.7757500112056732e-02" rms="3.2218301296234131e-01" purity="7.5885355472564697e-01" nType="-99"/>
          <Node pos="r" depth="2" NCoef="0" IVar="-1" Cut="0.0000000000000000e+00" cType="1" res="-1.3297941535711288e-02" rms="2.4444884061813354e-01" purity="7.0883393287658691e-01" nType="-99"/>
        </Node>
      </Node>
    </BinaryTree>
    <BinaryTree type="DecisionTree" boostWeight="1.0000000000000000e+00" itree="41">
      <Node pos="s" depth="0" NCoef="0" IVar="4" Cut="1.6535999774932861e+00" cType="1" res="1.2164714187383652e-01" rms="2.8654950857162476e-01" purity="5.8212000131607056e-01" nType="0">
        <Node pos="l" depth="1" NCoef="0" IVar="4" Cut="1.1511824131011963e+00" cType="1" res="2.4764046072959900e-02" rms="2.2705355286598206e-01" purity="4.2893904447555542e-01" nType="0">
          <Node pos="l" depth="2" NCoef="0" IVar="-1" Cut="0.0000000000000000e+00" cType="1" res="-2.5444805622100830e-02" rms="1.6475965082645416e-01" purity="2.7247452735900879e-01" nType="-99"/>
          <Node pos="r" depth="2" NCoef="0" IVar="-1" Cut="0.0000000000000000e+00" cType="1" res="3.1065024435520172e-02" rms="2.5483578443527222e-01" purity="5.4131346940994263e-01" nType="-99"/>
        </Node>
        <Node pos="r" depth="1" NCoef="0" IVar="4" Cut="1.8689353466033936e+00" cType="1" res="2.6483872532844543e-01" rms="3.0479028820991516e-01" purity="8.0851876735687256e-01" nType="0">
          <Node pos="l" depth="2" NCoef="0" IVar="-1" Cut="0.0000000000000000e+00" cType="1" res="8.7069459259510040e-02" rms="2.1068757772445679e-01" purity="9.0092182159423828e-01" nType="-99"/>
          <Node pos="r" depth="2" NCoef="0" IVar="-1" Cut="0.0000000000000000e+00" cType="1" res="-2.7978209778666496e-02" rms="2.6413223147392273e-01" purity="5.8400982618331909e-01" nType="-99"/>
        </Node>
      </Node>
    </BinaryTree>
    <BinaryTree type="DecisionTree" boostWeight="1.0000000000000000e+00" itree="42">
      <Node pos="s" depth="0" NCoef="0" IVar="2" Cut="1.9307900667190552e+00" cType="1" res="-3.1138615682721138e-02" rms="2.0153209567070007e-01" purity="4.4091871380805969e-01" nType="0">
        <Node pos="l" depth="1" NCoef="0" IVar="1" Cut="9.0476191043853760e-01" cType="1" res="-6.0008767992258072e-02" rms="2.0220768451690674e-01" purity="9.0968601405620575e-02" nType="0">
          <Node pos="l" depth="2" NCoef="0" IVar="-1" Cut="0.0000000000000000e+00" cType="1" res="-5.2722703665494919e-02" rms="2.5437079370021820e-02" purity="1.0398061931482516e-06" nType="-99"/>
          <Node pos="r" depth="2" NCoef="0" IVar="-1" Cut="0.0000000000000000e+00" cType="1" res="-3.7434965372085571e-02" rms="2.9763278365135193e-01" purity="2.0894944667816162e-01" nType="-99"/>
        </Node>
        <Node pos="r" depth="1" NCoef="0" IVar="1" Cut="9.0476191043853760e-01" cType="1" res="3.2433941960334778e-03" rms="1.9523221254348755e-01" purity="8.5768091678619385e-01" nType="0">
          <Node pos="l" depth="2" NCoef="0" IVar="-1" Cut="0.0000000000000000e+00" cType="1" res="-5.7682622224092484e-02" rms="6.6450960934162140e-02" purity="0.0000000000000000e+00" nType="-99"/>
          <Node pos="r" depth="2" NCoef="0" IVar="-1" Cut="0.0000000000000000e+00" cType="1" res="7.8897047787904739e-03" rms="2.0103400945663452e-01" purity="9.2876911163330078e-01" nType="-99"/>
        </Node>
      </Node>
    </BinaryTree>
    <BinaryTree type="DecisionTree" boostWeight="1.0000000000000000e+00" itree="43">
      <Node pos="s" depth="0" NCoef="0" IVar="4" Cut="1.9350659847259521e+00" cType="1" res="-5.2520683966577053e-03" rms="2.4570244550704956e-01" purity="4.5163482427597046e-01" nType="0">
        <Node pos="l" depth="1" NCoef="0" IVar="4" Cut="1.0971528291702271e+00" cType="1" res="-2.9942169785499573e-02" rms="2.4888357520103455e-01" purity="2.2636929154396057e-01" nType="0">
          <Node pos="l" depth="2" NCoef="0" IVar="-1" Cut="0.0000000000000000e+00" cType="1" res="3.0967762693762779e-02" rms="2.9274931550025940e-01" purity="2.4402162432670593e-01" nType="-99"/>
          <Node pos="r" depth="2" NCoef="0" IVar="-1" Cut="0.0000000000000000e+00" cType="1" res="-6.0873128473758698e-02" rms="1.9707337021827698e-01" purity="2.1416573226451874e-01" nType="-99"/>
        </Node>
        <Node pos="r" depth="1" NCoef="0" IVar="4" Cut="2.1446909904479980e+00" cType="1" res="3.8021776825189590e-02" rms="2.3381845653057098e-01" purity="8.4645324945449829e-01" nType="0">
          <Node pos="l" depth="2" NCoef="0" IVar="-1" Cut="0.0000000000000000e+00" cType="1" res="7.5737699866294861e-02" rms="2.9949516057968140e-01" purity="8.3736455440521240e-01" nType="-99"/>
          <Node pos="r" depth="2" NCoef="0" IVar="-1" Cut="0.0000000000000000e+00" cType="1" res="5.4362677037715912e-03" rms="1.8573054671287537e-01" purity="8.5086590051651001e-01" nType="-99"/>
        </Node>
      </Node>
    </BinaryTree>
    <BinaryTree type="DecisionTree" boostWeight="1.0000000000000000e+00" itree="44">
      <Node pos="s" depth="0" NCoef="0" IVar="2" Cut="2.7511208057403564e+00" cType="1" res="-1.9170334562659264e-02" rms="1.8989519774913788e-01" purity="4.9837824702262878e-01" nType="0">
        <Node pos="l" depth="1" NCoef="0" IVar="1" Cut="9.0476191043853760e-01" cType="1" res="-5.2203509956598282e-02" rms="2.2279977798461914e-01" purity="1.1788661032915115e-01" nType="0">
          <Node pos="l" depth="2" NCoef="0" IVar="-1" Cut="0.0000000000000000e+00" cType="1" res="-5.2566267549991608e-02" rms="2.3946670815348625e-02" purity="0.0000000000000000e+00" nType="-99"/>
          <Node pos="r" depth="2" NCoef="0" IVar="-1" Cut="0.0000000000000000e+00" cType="1" res="-3.0099356546998024e-02" rms="3.2421210408210754e-01" purity="2.5776225328445435e-01" nType="-99"/>
        </Node>
        <Node pos="r" depth="1" NCoef="0" IVar="-1" Cut="0.0000000000000000e+00" cType="1" res="2.3477476090192795e-02" rms="1.2962180376052856e-01" purity="9.5677590370178223e-01" nType="-99"/>
      </Node>
    </BinaryTree>
    <BinaryTree type="DecisionTree" boostWeight="1.0000000000000000e+00" itree="45">
      <Node pos="s" depth="0" NCoef="0" IVar="4" Cut="1.1587742567062378e+00" cType="1" res="2.5839161127805710e-02" rms="2.5953525304794312e-01" purity="4.8821118474006653e-01" nType="0">
        <Node pos="l" depth="1" NCoef="0" IVar="4" Cut="1.0725133419036865e+00" cType="1" res="-1.5378570184111595e-02" rms="2.0377090573310852e-01" purity="2.6461118459701538e-01" nType="0">
          <Node pos="l" depth="2" NCoef="0" IVar="-1" Cut="0.0000000000000000e+00" cType="1" res="-5.3682509809732437e-02" rms="1.5033598244190216e-01" purity="9.3106411397457123e-02" nType="-99"/>
          <Node pos="r" depth="2" NCoef="0" IVar="-1" Cut="0.0000000000000000e+00" cType="1" res="3.3150561153888702e-02" rms="2.4865777790546417e-01" purity="5.0836622714996338e-01" nType="-99"/>
        </Node>
        <Node pos="r" depth="1" NCoef="0" IVar="1" Cut="8.0952382087707520e-01" cType="1" res="4.4167347252368927e-02" rms="2.7884691953659058e-01" purity="5.8763879537582397e-01" nType="0">
          <Node pos="l" depth="2" NCoef="0" IVar="-1" Cut="0.0000000000000000e+00" cType="1" res="-5.2633866667747498e-02" rms="2.4478148669004440e-02" purity="0.0000000000000000e+00" nType="-99"/>
          <Node pos="r" depth="2" NCoef="0" IVar="-1" Cut="0.0000000000000000e+00" cType="1" res="3.2165210694074631e-02" rms="3.1491222977638245e-01" purity="7.6280629634857178e-01" nType="-99"/>
        </Node>
      </Node>
    </BinaryTree>
    <BinaryTree type="DecisionTree" boostWeight="1.0000000000000000e+00" itree="46">
      <Node pos="s" depth="0" NCoef="0" IVar="4" Cut="1.1587667465209961e+00" cType="1" res="2.8200831264257431e-02" rms="2.5642189383506775e-01" purity="5.2974653244018555e-01" nType="0">
        <Node pos="l" depth="1" NCoef="0" IVar="4" Cut="1.0355426073074341e+00" cType="1" res="8.8748075067996979e-02" rms="3.1869864463806152e-01" purity="3.6703979969024658e-01" nType="0">
          <Node pos="l" depth="2" NCoef="0" IVar="-1" Cut="0.0000000000000000e+00" cType="1" res="-5.0672303885221481e-02" rms="1.4123831689357758e-01" purity="8.7758213281631470e-02" nType="-99"/>
          <Node pos="r" depth="2" NCoef="0" IVar="-1" Cut="0.0000000000000000e+00" cType="1" res="9.8936498165130615e-02" rms="3.6627417802810669e-01" purity="5.5673396587371826e-01" nType="-99"/>
        </Node>
        <Node pos="r" depth="1" NCoef="0" IVar="4" Cut="2.6374697685241699e+00" cType="1" res="-1.2768734013661742e-03" rms="2.1368424594402313e-01" purity="6.0896104574203491e-01" nType="0">
          <Node pos="l" depth="2" NCoef="0" IVar="-1" Cut="0.0000000000000000e+00" cType="1" res="-1.7103873193264008e-02" rms="1.9307117164134979e-01" purity="5.5383425951004028e-01" nType="-99"/>
          <Node pos="r" depth="2" NCoef="0" IVar="-1" Cut="0.0000000000000000e+00" cType="1" res="5.4881203919649124e-02" rms="2.7476063370704651e-01" purity="8.9044052362442017e-01" nType="-99"/>
        </Node>
      </Node>
    </BinaryTree>
    <BinaryTree type="DecisionTree" boostWeight="1.0000000000000000e+00" itree="47">
      <Node pos="s" depth="0" NCoef="0" IVar="4" Cut="1.6762995719909668e+00" cType="1" res="6.4362399280071259e-02" rms="2.6230135560035706e-01" purity="5.3985774517059326e-01" nType="0">
        <Node pos="l" depth="1" NCoef="0" IVar="4" Cut="1.3435809612274170e+00" cType="1" res="-9.5534296706318855e-03" rms="1.8835476040840149e-01" purity="3.7024131417274475e-01" nType="0">
          <Node pos="l" depth="2" NCoef="0" IVar="-1" Cut="0.0000000000000000e+00" cType="1" res="-3.3815529197454453e-02" rms="1.6446359455585480e-01" purity="2.7546846866607666e-01" nType="-99"/>
          <Node pos="r" depth="2" NCoef="0" IVar="-1" Cut="0.0000000000000000e+00" cType="1" res="2.6591215282678604e-02" rms="2.1628531813621521e-01" purity="5.6383973360061646e-01" nType="-99"/>
        </Node>
        <Node pos="r" depth="1" NCoef="0" IVar="4" Cut="1.8981517553329468e+00" cType="1" res="1.7560759186744690e-01" rms="3.1362068653106689e-01" purity="7.9513478279113770e-01" nType="0">
          <Node pos="l" depth="2" NCoef="0" IVar="-1" Cut="0.0000000000000000e+00" cType="1" res="8.3607241511344910e-02" rms="2.6847183704376221e-01" purity="8.2351040840148926e-01" nType="-99"/>
          <Node pos="r" depth="2" NCoef="0" IVar="-1" Cut="0.0000000000000000e+00" cType="1" res="2.4851035326719284e-02" rms="2.7021452784538269e-01" purity="7.7341324090957642e-01" nType="-99"/>
        </Node>
      </Node>
    </BinaryTree>
    <BinaryTree type="DecisionTree" boostWeight="1.0000000000000000e+00" itree="48">
      <Node pos="s" depth="0" NCoef="0" IVar="4" Cut="2.0174877643585205e+00" cType="1" res="5.1700755953788757e-02" rms="2.9523551464080811e-01" purity="4.9191120266914368e-01" nType="0">
        <Node pos="l" depth="1" NCoef="0" IVar="4" Cut="1.2724862098693848e+00" cType="1" res="2.9870746657252312e-02" rms="2.7380427718162537e-01" purity="4.1651606559753418e-01" nType="0">
          <Node pos="l" depth="2" NCoef="0" IVar="-1" Cut="0.0000000000000000e+00" cType="1" res="4.8059556633234024e-02" rms="3.1578040122985840e-01" purity="3.5406282544136047e-01" nType="-99"/>
          <Node pos="r" depth="2" NCoef="0" IVar="-1" Cut="0.0000000000000000e+00" cType="1" res="-2.1966308355331421e-02" rms="1.9238041341304779e-01" purity="4.9732899665832520e-01" nType="-99"/>
        </Node>
        <Node pos="r" depth="1" NCoef="0" IVar="4" Cut="2.2437007427215576e+00" cType="1" res="1.3679175078868866e-01" rms="3.5440331697463989e-01" purity="7.8579342365264893e-01" nType="0">
          <Node pos="l" depth="2" NCoef="0" IVar="-1" Cut="0.0000000000000000e+00" cType="1" res="9.7780533134937286e-02" rms="3.5011550784111023e-01" purity="8.5058748722076416e-01" nType="-99"/>
          <Node pos="r" depth="2" NCoef="0" IVar="-1" Cut="0.0000000000000000e+00" cType="1" res="2.2621199488639832e-02" rms="3.3742386102676392e-01" purity="7.1314924955368042e-01" nType="-99"/>
        </Node>
      </Node>
    </BinaryTree>
    <BinaryTree type="DecisionTree" boostWeight="1.0000000000000000e+00" itree="49">
      <Node pos="s" depth="0" NCoef="0" IVar="4" Cut="1.6762995719909668e+00" cType="1" res="3.2607723027467728e-02" rms="2.5096261501312256e-01" purity="5.2884775400161743e-01" nType="0">
        <Node pos="l" depth="1" NCoef="0" IVar="2" Cut="1.8427228927612305e+00" cType="1" res="-2.7204353362321854e-02" rms="1.8813672661781311e-01" purity="3.3015063405036926e-01" nType="0">
          <Node pos="l" depth="2" NCoef="0" IVar="-1" Cut="0.0000000000000000e+00" cType="1" res="-4.0803082287311554e-02" rms="1.6064374148845673e-01" purity="2.4646587669849396e-02" nType="-99"/>
          <Node pos="r" depth="2" NCoef="0" IVar="-1" Cut="0.0000000000000000e+00" cType="1" res="-9.1062736464664340e-04" rms="2.2038327157497406e-01" purity="7.8536486625671387e-01" nType="-99"/>
        </Node>
        <Node pos="r" depth="1" NCoef="0" IVar="4" Cut="1.8981468677520752e+00" cType="1" res="1.1485260725021362e-01" rms="2.9871752858161926e-01" purity="8.0206710100173950e-01" nType="0">
          <Node pos="l" depth="2" NCoef="0" IVar="-1" Cut="0.0000000000000000e+00" cType="1" res="6.4516603946685791e-02" rms="3.1260353326797485e-01" purity="7.1684265136718750e-01" nType="-99"/>
          <Node pos="r" depth="2" NCoef="0" IVar="-1" Cut="0.0000000000000000e+00" cType="1" res="4.7449093312025070e-02" rms="2.8078404068946838e-01" purity="8.3239394426345825e-01" nType="-99"/>
        </Node>
      </Node>
    </BinaryTree>
    <BinaryTree type="DecisionTree" boostWeight="1.0000000000000000e+00" itree="50">
      <Node pos="s" depth="0" NCoef="0" IVar="4" Cut="1.7381488084793091e+00" cType="1" res="1.0667284019291401e-02" rms="2.5873917341232300e-01" purity="4.1291078925132751e-01" nType="0">
        <Node pos="l" depth="1" NCoef="0" IVar="2" Cut="2.7355737686157227e+00" cType="1" res="-3.5408936440944672e-02" rms="1.9952423870563507e-01" purity="2.6504629850387573e-01" nType="0">
          <Node pos="l" depth="2" NCoef="0" IVar="-1" Cut="0.0000000000000000e+00" cType="1" res="-3.9718858897686005e-02" rms="1.9602589309215546e-01" purity="3.6716204136610031e-02" nType="-99"/>
          <Node pos="r" depth="2" NCoef="0" IVar="-1" Cut="0.0000000000000000e+00" cType="1" res="-2.9267738573253155e-03" rms="2.0545588433742523e-01" purity="8.9207661151885986e-01" nType="-99"/>
        </Node>
        <Node pos="r" depth="1" NCoef="0" IVar="4" Cut="1.9777081012725830e+00" cType="1" res="1.0644020885229111e-01" rms="3.3130800724029541e-01" purity="7.2025829553604126e-01" nType="0">
          <Node pos="l" depth="2" NCoef="0" IVar="-1" Cut="0.0000000000000000e+00" cType="1" res="6.0545053333044052e-02" rms="2.9941040277481079e-01" purity="7.4793624877929688e-01" nType="-99"/>
          <Node pos="r" depth="2" NCoef="0" IVar="-1" Cut="0.0000000000000000e+00" cType="1" res="1.3693924061954021e-02" rms="3.3091315627098083e-01" purity="6.9875824451446533e-01" nType="-99"/>
        </Node>
      </Node>
    </BinaryTree>
    <BinaryTree type="DecisionTree" boostWeight="1.0000000000000000e+00" itree="51">
      <Node pos="s" depth="0" NCoef="0" IVar="2" Cut="2.0259006023406982e+00" cType="1" res="-2.3083351552486420e-02" rms="1.9664339721202850e-01" purity="4.8132184147834778e-01" nType="0">
        <Node pos="l" depth="1" NCoef="0" IVar="1" Cut="9.0476191043853760e-01" cType="1" res="-5.6072697043418884e-02" rms="2.0915089547634125e-01" purity="5.7801604270935059e-02" nType="0">
          <Node pos="l" depth="2" NCoef="0" IVar="-1" Cut="0.0000000000000000e+00" cType="1" res="8.6477957665920258e-03" rms="1.1939997225999832e-01" purity="3.1107027083635330e-02" nType="-99"/>
          <Node pos="r" depth="2" NCoef="0" IVar="-1" Cut="0.0000000000000000e+00" cType="1" res="-5.6392483413219452e-02" rms="2.7332493662834167e-01" purity="9.8210491240024567e-02" nType="-99"/>
        </Node>
        <Node pos="r" depth="1" NCoef="0" IVar="1" Cut="9.0476191043853760e-01" cType="1" res="9.1610644012689590e-03" rms="1.7777606844902039e-01" purity="8.9527863264083862e-01" nType="0">
          <Node pos="l" depth="2" NCoef="0" IVar="-1" Cut="0.0000000000000000e+00" cType="1" res="-5.8706864714622498e-02" rms="7.3788829147815704e-02" purity="0.0000000000000000e+00" nType="-99"/>
          <Node pos="r" depth="2" NCoef="0" IVar="-1" Cut="0.0000000000000000e+00" cType="1" res="1.4795248396694660e-02" rms="1.8110799789428711e-01" purity="9.4868153333663940e-01" nType="-99"/>
        </Node>
      </Node>
    </BinaryTree>
    <BinaryTree type="DecisionTree" boostWeight="1.0000000000000000e+00" itree="52">
      <Node pos="s" depth="0" NCoef="0" IVar="4" Cut="1.6536374092102051e+00" cType="1" res="4.5405011624097824e-02" rms="2.6891958713531494e-01" purity="5.0475621223449707e-01" nType="0">
        <Node pos="l" depth="1" NCoef="0" IVar="4" Cut="1.0435838699340820e+00" cType="1" res="1.4005611650645733e-02" rms="2.3995658755302429e-01" purity="3.7422996759414673e-01" nType="0">
          <Node pos="l" depth="2" NCoef="0" IVar="-1" Cut="0.0000000000000000e+00" cType="1" res="5.9176273643970490e-02" rms="3.1324744224548340e-01" purity="2.1989807486534119e-01" nType="-99"/>
          <Node pos="r" depth="2" NCoef="0" IVar="-1" Cut="0.0000000000000000e+00" cType="1" res="-8.0631989985704422e-03" rms="2.0196726918220520e-01" purity="4.3063610792160034e-01" nType="-99"/>
        </Node>
        <Node pos="r" depth="1" NCoef="0" IVar="4" Cut="1.8689680099487305e+00" cType="1" res="1.0239540785551071e-01" rms="3.0664494633674622e-01" purity="7.4166339635848999e-01" nType="0">
          <Node pos="l" depth="2" NCoef="0" IVar="-1" Cut="0.0000000000000000e+00" cType="1" res="6.0103055089712143e-02" rms="3.0060935020446777e-01" purity="7.0290189981460571e-01" nType="-99"/>
          <Node pos="r" depth="2" NCoef="0" IVar="-1" Cut="0.0000000000000000e+00" cType="1" res="2.6195025071501732e-02" rms="2.9174444079399109e-01" purity="7.6014184951782227e-01" nType="-99"/>
        </Node>
      </Node>
    </BinaryTree>
    <BinaryTree type="DecisionTree" boostWeight="1.0000000000000000e+00" itree="53">
      <Node pos="s" depth="0" NCoef="0" IVar="2" Cut="2.0259041786193848e+00" cType="1" res="5.0689716590568423e-04" rms="2.0718905329704285e-01" purity="5.1242822408676147e-01" nType="0">
        <Node pos="l" depth="1" NCoef="0" IVar="4" Cut="2.5762219429016113e+00" cType="1" res="-2.7666272595524788e-02" rms="2.2586201131343842e-01" purity="1.3022816181182861e-01" nType="0">
          <Node pos="l" depth="2" NCoef="0" IVar="-1" Cut="0.0000000000000000e+00" cType="1" res="-3.8730777800083160e-02" rms="1.9485355913639069e-01" purity="4.6856045722961426e-02" nType="-99"/>
          <Node pos="r" depth="2" NCoef="0" IVar="-1" Cut="0.0000000000000000e+00" cType="1" res="3.9771448820829391e-02" rms="3.5796788334846497e-01" purity="7.8016215562820435e-01" nType="-99"/>
        </Node>
        <Node pos="r" depth="1" NCoef="0" IVar="1" Cut="9.0476191043853760e-01" cType="1" res="2.9123960062861443e-02" rms="1.8190214037895203e-01" purity="9.0065026283264160e-01" nType="0">
          <Node pos="l" depth="2" NCoef="0" IVar="-1" Cut="0.0000000000000000e+00" cType="1" res="-5.7841178029775620e-02" rms="6.7605115473270416e-02" purity="0.0000000000000000e+00" nType="-99"/>
          <Node pos="r" depth="2" NCoef="0" IVar="-1" Cut="0.0000000000000000e+00" cType="1" res="2.7330348268151283e-02" rms="1.8489940464496613e-01" purity="9.5123100280761719e-01" nType="-99"/>
        </Node>
      </Node>
    </BinaryTree>
    <BinaryTree type="DecisionTree" boostWeight="1.0000000000000000e+00" itree="54">
      <Node pos="s" depth="0" NCoef="0" IVar="4" Cut="1.6219910383224487e+00" cType="1" res="1.8956331536173820e-02" rms="2.2377908229827881e-01" purity="5.3569251298904419e-01" nType="0">
        <Node pos="l" depth="1" NCoef="0" IVar="2" Cut="2.7511336803436279e+00" cType="1" res="-2.8423463925719261e-02" rms="1.8188641965389252e-01" purity="2.7058118581771851e-01" nType="0">
          <Node pos="l" depth="2" NCoef="0" IVar="-1" Cut="0.0000000000000000e+00" cType="1" res="-3.8618694990873337e-02" rms="1.7367230355739594e-01" purity="3.0320169404149055e-02" nType="-99"/>
          <Node pos="r" depth="2" NCoef="0" IVar="-1" Cut="0.0000000000000000e+00" cType="1" res="1.6575247282162309e-03" rms="1.9876044988632202e-01" purity="9.0318423509597778e-01" nType="-99"/>
        </Node>
        <Node pos="r" depth="1" NCoef="0" IVar="4" Cut="1.8282877206802368e+00" cType="1" res="6.8224877119064331e-02" rms="2.5097256898880005e-01" purity="8.1137228012084961e-01" nType="0">
          <Node pos="l" depth="2" NCoef="0" IVar="-1" Cut="0.0000000000000000e+00" cType="1" res="6.0307111591100693e-02" rms="2.8463810682296753e-01" purity="7.1942102909088135e-01" nType="-99"/>
          <Node pos="r" depth="2" NCoef="0" IVar="-1" Cut="0.0000000000000000e+00" cType="1" res="2.1195357665419579e-02" rms="2.2228762507438660e-01" purity="8.4091424942016602e-01" nType="-99"/>
        </Node>
      </Node>
    </BinaryTree>
    <BinaryTree type="DecisionTree" boostWeight="1.0000000000000000e+00" itree="55">
      <Node pos="s" depth="0" NCoef="0" IVar="4" Cut="2.1032598018646240e+00" cType="1" res="1.6963727772235870e-02" rms="2.5204369425773621e-01" purity="4.8450648784637451e-01" nType="0">
        <Node pos="l" depth="1" NCoef="0" IVar="4" Cut="1.0718984603881836e+00" cType="1" res="-1.2842696160078049e-03" rms="2.3220913112163544e-01" purity="3.8842463493347168e-01" nType="0">
          <Node pos="l" depth="2" NCoef="0" IVar="-1" Cut="0.0000000000000000e+00" cType="1" res="5.4604891687631607e-02" rms="3.0230683088302612e-01" purity="2.7372682094573975e-01" nType="-99"/>
          <Node pos="r" depth="2" NCoef="0" IVar="-1" Cut="0.0000000000000000e+00" cType="1" res="-2.7435254305601120e-02" rms="1.8910890817642212e-01" purity="4.3541970849037170e-01" nType="-99"/>
        </Node>
        <Node pos="r" depth="1" NCoef="0" IVar="4" Cut="2.4700317382812500e+00" cType="1" res="8.2618057727813721e-02" rms="3.0426147580146790e-01" purity="8.3019864559173584e-01" nType="0">
          <Node pos="l" depth="2" NCoef="0" IVar="-1" Cut="0.0000000000000000e+00" cType="1" res="8.3270728588104248e-02" rms="3.6518847942352295e-01" purity="7.9101592302322388e-01" nType="-99"/>
          <Node pos="r" depth="2" NCoef="0" IVar="-1" Cut="0.0000000000000000e+00" cType="1" res="-1.1589426547288895e-02" rms="2.0299695432186127e-01" purity="8.5880202054977417e-01" nType="-99"/>
        </Node>
      </Node>
    </BinaryTree>
    <BinaryTree type="DecisionTree" boostWeight="1.0000000000000000e+00" itree="56">
      <Node pos="s" depth="0" NCoef="0" IVar="4" Cut="1.7381161451339722e+00" cType="1" res="3.7343911826610565e-02" rms="2.3515173792839050e-01" purity="5.7571059465408325e-01" nType="0">
        <Node pos="l" depth="1" NCoef="0" IVar="1" Cut="9.0476191043853760e-01" cType="1" res="6.4154222607612610e-02" rms="2.4127843976020813e-01" purity="5.1435524225234985e-01" nType="0">
          <Node pos="l" depth="2" NCoef="0" IVar="-1" Cut="0.0000000000000000e+00" cType="1" res="-5.2393637597560883e-02" rms="2.0617663860321045e-02" purity="0.0000000000000000e+00" nType="-99"/>
          <Node pos="r" depth="2" NCoef="0" IVar="-1" Cut="0.0000000000000000e+00" cType="1" res="4.5379489660263062e-02" rms="2.8125044703483582e-01" purity="7.3220503330230713e-01" nType="-99"/>
        </Node>
        <Node pos="r" depth="1" NCoef="0" IVar="4" Cut="2.4565634727478027e+00" cType="1" res="-3.8655534386634827e-02" rms="1.9801130890846252e-01" purity="7.4963539838790894e-01" nType="0">
          <Node pos="l" depth="2" NCoef="0" IVar="-1" Cut="0.0000000000000000e+00" cType="1" res="-6.7273147404193878e-02" rms="2.1138940751552582e-01" purity="6.0560631752014160e-01" nType="-99"/>
          <Node pos="r" depth="2" NCoef="0" IVar="-1" Cut="0.0000000000000000e+00" cType="1" res="-1.0406889021396637e-02" rms="1.7944812774658203e-01" purity="8.8712674379348755e-01" nType="-99"/>
        </Node>
      </Node>
    </BinaryTree>
    <BinaryTree type="DecisionTree" boostWeight="1.0000000000000000e+00" itree="57">
      <Node pos="s" depth="0" NCoef="0" IVar="2" Cut="2.7355828285217285e+00" cType="1" res="-3.1591370701789856e-02" rms="1.7776042222976685e-01" purity="4.8538979887962341e-01" nType="0">
        <Node pos="l" depth="1" NCoef="0" IVar="1" Cut="9.0476191043853760e-01" cType="1" res="-6.3793063163757324e-02" rms="2.0052154362201691e-01" purity="9.3652904033660889e-02" nType="0">
          <Node pos="l" depth="2" NCoef="0" IVar="-1" Cut="0.0000000000000000e+00" cType="1" res="-5.4248366504907608e-02" rms="3.2006487250328064e-02" purity="4.7113057917158585e-06" nType="-99"/>
          <Node pos="r" depth="2" NCoef="0" IVar="-1" Cut="0.0000000000000000e+00" cType="1" res="-5.1467835903167725e-02" rms="2.8743028640747070e-01" purity="2.0994281768798828e-01" nType="-99"/>
        </Node>
        <Node pos="r" depth="1" NCoef="0" IVar="-1" Cut="0.0000000000000000e+00" cType="1" res="1.1077248491346836e-02" rms="1.3620804250240326e-01" purity="9.5471382141113281e-01" nType="-99"/>
      </Node>
    </BinaryTree>
    <BinaryTree type="DecisionTree" boostWeight="1.0000000000000000e+00" itree="58">
      <Node pos="s" depth="0" NCoef="0" IVar="4" Cut="1.6190451383590698e+00" cType="1" res="3.2246585935354233e-02" rms="2.5251740217208862e-01" purity="5.3346216678619385e-01" nType="0">
        <Node pos="l" depth="1" NCoef="0" IVar="4" Cut="1.0369615554809570e+00" cType="1" res="6.3261762261390686e-02" rms="2.7284392714500427e-01" purity="4.3686571717262268e-01" nType="0">
          <Node pos="l" depth="2" NCoef="0" IVar="-1" Cut="0.0000000000000000e+00" cType="1" res="-4.5799214392900467e-02" rms="1.4253364503383636e-01" purity="1.3381302356719971e-01" nType="-99"/>
          <Node pos="r" depth="2" NCoef="0" IVar="-1" Cut="0.0000000000000000e+00" cType="1" res="6.0967784374952316e-02" rms="2.9208859801292419e-01" purity="5.1893794536590576e-01" nType="-99"/>
        </Node>
        <Node pos="r" depth="1" NCoef="0" IVar="4" Cut="2.0299444198608398e+00" cType="1" res="-2.8260065242648125e-02" rms="1.9337637722492218e-01" purity="7.2190970182418823e-01" nType="0">
          <Node pos="l" depth="2" NCoef="0" IVar="-1" Cut="0.0000000000000000e+00" cType="1" res="-8.5236214101314545e-02" rms="2.1997314691543579e-01" purity="2.5682306289672852e-01" nType="-99"/>
          <Node pos="r" depth="2" NCoef="0" IVar="-1" Cut="0.0000000000000000e+00" cType="1" res="-4.2250943370163441e-03" rms="1.7795421183109283e-01" purity="8.5012018680572510e-01" nType="-99"/>
        </Node>
      </Node>
    </BinaryTree>
    <BinaryTree type="DecisionTree" boostWeight="1.0000000000000000e+00" itree="59">
      <Node pos="s" depth="0" NCoef="0" IVar="4" Cut="1.7381170988082886e+00" cType="1" res="6.8201380781829357e-03" rms="2.4537315964698792e-01" purity="4.2927533388137817e-01" nType="0">
        <Node pos="l" depth="1" NCoef="0" IVar="4" Cut="1.0995564460754395e+00" cType="1" res="2.4126414209604263e-02" rms="2.4608588218688965e-01" purity="3.7610590457916260e-01" nType="0">
          <Node pos="l" depth="2" NCoef="0" IVar="-1" Cut="0.0000000000000000e+00" cType="1" res="-4.0237080305814743e-02" rms="1.5936921536922455e-01" purity="1.7608626186847687e-01" nType="-99"/>
          <Node pos="r" depth="2" NCoef="0" IVar="-1" Cut="0.0000000000000000e+00" cType="1" res="3.7719056010246277e-02" rms="2.7332842350006104e-01" purity="4.7142067551612854e-01" nType="-99"/>
        </Node>
        <Node pos="r" depth="1" NCoef="0" IVar="4" Cut="1.9776420593261719e+00" cType="1" res="-5.2341166883707047e-02" rms="2.3342376947402954e-01" purity="6.1103427410125732e-01" nType="0">
          <Node pos="l" depth="2" NCoef="0" IVar="-1" Cut="0.0000000000000000e+00" cType="1" res="-8.0911487340927124e-02" rms="2.2479517757892609e-01" purity="2.5511512160301208e-01" nType="-99"/>
          <Node pos="r" depth="2" NCoef="0" IVar="-1" Cut="0.0000000000000000e+00" cType="1" res="-2.6311641559004784e-02" rms="2.3277230560779572e-01" purity="7.0308816432952881e-01" nType="-99"/>
        </Node>
      </Node>
    </BinaryTree>
    <BinaryTree type="DecisionTree" boostWeight="1.0000000000000000e+00" itree="60">
      <Node pos="s" depth="0" NCoef="0" IVar="2" Cut="2.7355663776397705e+00" cType="1" res="-5.6423270143568516e-03" rms="1.9118016958236694e-01" purity="4.9102070927619934e-01" nType="0">
        <Node pos="l" depth="1" NCoef="0" IVar="2" Cut="2.3447329998016357e+00" cType="1" res="-1.6718402504920959e-02" rms="2.1383425593376160e-01" purity="2.1247480809688568e-01" nType="0">
          <Node pos="l" depth="2" NCoef="0" IVar="-1" Cut="0.0000000000000000e+00" cType="1" res="-2.7798647060990334e-02" rms="2.1224258840084076e-01" purity="8.6874030530452728e-02" nType="-99"/>
          <Node pos="r" depth="2" NCoef="0" IVar="-1" Cut="0.0000000000000000e+00" cType="1" res="3.7703126668930054e-02" rms="1.9036060571670532e-01" purity="8.5810625553131104e-01" nType="-99"/>
        </Node>
        <Node pos="r" depth="1" NCoef="0" IVar="-1" Cut="0.0000000000000000e+00" cType="1" res="1.5605288557708263e-02" rms="1.4480786025524139e-01" purity="9.4789332151412964e-01" nType="-99"/>
      </Node>
    </BinaryTree>
    <BinaryTree type="DecisionTree" boostWeight="1.0000000000000000e+00" itree="61">
      <Node pos="s" depth="0" NCoef="0" IVar="1" Cut="9.0476191043853760e-01" cType="1" res="6.5672241151332855e-02" rms="2.8325745463371277e-01" purity="5.0017309188842773e-01" nType="0">
        <Node pos="l" depth="1" NCoef="0" IVar="4" Cut="1.9047998189926147e+00" cType="1" res="-1.6565864905714989e-02" rms="3.3011216670274734e-02" purity="9.2818447683384875e-07" nType="0">
          <Node pos="l" depth="2" NCoef="0" IVar="-1" Cut="0.0000000000000000e+00" cType="1" res="-5.2684828639030457e-02" rms="2.1551892161369324e-02" purity="0.0000000000000000e+00" nType="-99"/>
          <Node pos="r" depth="2" NCoef="0" IVar="-1" Cut="0.0000000000000000e+00" cType="1" res="-5.7958364486694336e-02" rms="6.7169718444347382e-02" purity="8.3377872215351090e-06" nType="-99"/>
        </Node>
        <Node pos="r" depth="1" NCoef="0" IVar="1" Cut="9.8639488220214844e-01" cType="1" res="1.0178513079881668e-01" rms="3.3273929357528687e-01" purity="7.1981173753738403e-01" nType="0">
          <Node pos="l" depth="2" NCoef="0" IVar="-1" Cut="0.0000000000000000e+00" cType="1" res="-4.9039144068956375e-02" rms="2.6847207546234131e-01" purity="1.1713199317455292e-01" nType="-99"/>
          <Node pos="r" depth="2" NCoef="0" IVar="-1" Cut="0.0000000000000000e+00" cType="1" res="6.0837194323539734e-02" rms="3.3105894923210144e-01" purity="8.3487755060195923e-01" nType="-99"/>
        </Node>
      </Node>
    </BinaryTree>
    <BinaryTree type="DecisionTree" boostWeight="1.0000000000000000e+00" itree="62">
      <Node pos="s" depth="0" NCoef="0" IVar="4" Cut="1.1512414216995239e+00" cType="1" res="2.2437084466218948e-02" rms="2.1374386548995972e-01" purity="5.8853137493133545e-01" nType="0">
        <Node pos="l" depth="1" NCoef="0" IVar="1" Cut="9.0476191043853760e-01" cType="1" res="-4.4689096510410309e-02" rms="1.4515115320682526e-01" purity="1.7353458702564240e-01" nType="0">
          <Node pos="l" depth="2" NCoef="0" IVar="-1" Cut="0.0000000000000000e+00" cType="1" res="-5.2182409912347794e-02" rms="1.7964934930205345e-02" purity="0.0000000000000000e+00" nType="-99"/>
          <Node pos="r" depth="2" NCoef="0" IVar="-1" Cut="0.0000000000000000e+00" cType="1" res="-5.2014913409948349e-02" rms="1.9670309126377106e-01" purity="3.3956530690193176e-01" nType="-99"/>
        </Node>
        <Node pos="r" depth="1" NCoef="0" IVar="1" Cut="9.0476191043853760e-01" cType="1" res="4.0927063673734665e-02" rms="2.2557558119297028e-01" purity="7.0284265279769897e-01" nType="0">
          <Node pos="l" depth="2" NCoef="0" IVar="-1" Cut="0.0000000000000000e+00" cType="1" res="-5.4932396858930588e-02" rms="3.6719210445880890e-02" purity="1.2514226909843273e-05" nType="-99"/>
          <Node pos="r" depth="2" NCoef="0" IVar="-1" Cut="0.0000000000000000e+00" cType="1" res="3.6301795393228531e-02" rms="2.4734030663967133e-01" purity="8.6294394731521606e-01" nType="-99"/>
        </Node>
      </Node>
    </BinaryTree>
    <BinaryTree type="DecisionTree" boostWeight="1.0000000000000000e+00" itree="63">
      <Node pos="s" depth="0" NCoef="0" IVar="4" Cut="1.1793706417083740e+00" cType="1" res="3.5788483917713165e-02" rms="2.7437534928321838e-01" purity="4.9956825375556946e-01" nType="0">
        <Node pos="l" depth="1" NCoef="0" IVar="4" Cut="1.0330320596694946e+00" cType="1" res="1.4515832066535950e-01" rms="3.6576133966445923e-01" purity="3.4570145606994629e-01" nType="0">
          <Node pos="l" depth="2" NCoef="0" IVar="-1" Cut="0.0000000000000000e+00" cType="1" res="-4.5540653169155121e-02" rms="1.3184002041816711e-01" purity="1.1426313221454620e-01" nType="-99"/>
          <Node pos="r" depth="2" NCoef="0" IVar="-1" Cut="0.0000000000000000e+00" cType="1" res="1.2864740192890167e-01" rms="4.1867995262145996e-01" purity="4.9972656369209290e-01" nType="-99"/>
        </Node>
        <Node pos="r" depth="1" NCoef="0" IVar="4" Cut="1.7115075588226318e+00" cType="1" res="-2.5202447548508644e-02" rms="1.7963479459285736e-01" purity="5.8537328243255615e-01" nType="0">
          <Node pos="l" depth="2" NCoef="0" IVar="-1" Cut="0.0000000000000000e+00" cType="1" res="-1.0230537503957748e-02" rms="1.5692797303199768e-01" purity="5.3612560033798218e-01" nType="-99"/>
          <Node pos="r" depth="2" NCoef="0" IVar="-1" Cut="0.0000000000000000e+00" cType="1" res="-4.9769021570682526e-02" rms="2.0908457040786743e-01" purity="6.6458171606063843e-01" nType="-99"/>
        </Node>
      </Node>
    </BinaryTree>
    <BinaryTree type="DecisionTree" boostWeight="1.0000000000000000e+00" itree="64">
      <Node pos="s" depth="0" NCoef="0" IVar="2" Cut="3.0863368511199951e+00" cType="1" res="-2.3214608430862427e-02" rms="1.8767923116683960e-01" purity="4.5923733711242676e-01" nType="0">
        <Node pos="l" depth="1" NCoef="0" IVar="2" Cut="2.0571224689483643e+00" cType="1" res="-4.7888096421957016e-02" rms="2.1950018405914307e-01" purity="1.0639086365699768e-01" nType="0">
          <Node pos="l" depth="2" NCoef="0" IVar="-1" Cut="0.0000000000000000e+00" cType="1" res="-2.7267450466752052e-02" rms="2.0013689994812012e-01" purity="8.6354531347751617e-02" nType="-99"/>
          <Node pos="r" depth="2" NCoef="0" IVar="-1" Cut="0.0000000000000000e+00" cType="1" res="-9.9211037158966064e-02" rms="3.2746827602386475e-01" purity="2.9651656746864319e-01" nType="-99"/>
        </Node>
        <Node pos="r" depth="1" NCoef="0" IVar="-1" Cut="0.0000000000000000e+00" cType="1" res="2.0801201462745667e-02" rms="1.1987717449665070e-01" purity="9.6862834692001343e-01" nType="-99"/>
      </Node>
    </BinaryTree>
    <BinaryTree type="DecisionTree" boostWeight="1.0000000000000000e+00" itree="65">
      <Node pos="s" depth="0" NCoef="0" IVar="4" Cut="1.6762995719909668e+00" cType="1" res="5.2390709519386292e-02" rms="2.7650171518325806e-01" purity="5.1190847158432007e-01" nType="0">
        <Node pos="l" depth="1" NCoef="0" IVar="4" Cut="1.1587542295455933e+00" cType="1" res="3.1364378519356251e-03" rms="2.3676531016826630e-01" purity="3.3837324380874634e-01" nType="0">
          <Node pos="l" depth="2" NCoef="0" IVar="-1" Cut="0.0000000000000000e+00" cType="1" res="-4.5455180108547211e-02" rms="1.7022746801376343e-01" purity="1.6263452172279358e-01" nType="-99"/>
          <Node pos="r" depth="2" NCoef="0" IVar="-1" Cut="0.0000000000000000e+00" cType="1" res="2.9833534732460976e-02" rms="2.7211433649063110e-01" purity="4.6906918287277222e-01" nType="-99"/>
        </Node>
        <Node pos="r" depth="1" NCoef="0" IVar="4" Cut="1.8981015682220459e+00" cType="1" res="1.2850186228752136e-01" rms="3.1373214721679688e-01" purity="7.8006720542907715e-01" nType="0">
          <Node pos="l" depth="2" NCoef="0" IVar="-1" Cut="0.0000000000000000e+00" cType="1" res="8.5031487047672272e-02" rms="3.2532426714897156e-01" purity="7.3941326141357422e-01" nType="-99"/>
          <Node pos="r" depth="2" NCoef="0" IVar="-1" Cut="0.0000000000000000e+00" cType="1" res="3.9419800043106079e-02" rms="2.7235126495361328e-01" purity="7.9841989278793335e-01" nType="-99"/>
        </Node>
      </Node>
    </BinaryTree>
    <BinaryTree type="DecisionTree" boostWeight="1.0000000000000000e+00" itree="66">
      <Node pos="s" depth="0" NCoef="0" IVar="2" Cut="1.6232655048370361e+00" cType="1" res="5.5513396859169006e-02" rms="2.9158750176429749e-01" purity="4.6678832173347473e-01" nType="0">
        <Node pos="l" depth="1" NCoef="0" IVar="2" Cut="5.4109382629394531e-01" cType="1" res="1.0852860659360886e-01" rms="3.2215282320976257e-01" purity="2.7714195847511292e-01" nType="0">
          <Node pos="l" depth="2" NCoef="0" IVar="-1" Cut="0.0000000000000000e+00" cType="1" res="-5.6953784078359604e-02" rms="1.6140323877334595e-01" purity="2.0437158644199371e-02" nType="-99"/>
          <Node pos="r" depth="2" NCoef="0" IVar="-1" Cut="0.0000000000000000e+00" cType="1" res="7.9509012401103973e-02" rms="3.5267004370689392e-01" purity="4.0655380487442017e-01" nType="-99"/>
        </Node>
        <Node pos="r" depth="1" NCoef="0" IVar="4" Cut="1.6219979524612427e+00" cType="1" res="-2.7192613109946251e-02" rms="2.1102893352508545e-01" purity="7.6264476776123047e-01" nType="0">
          <Node pos="l" depth="2" NCoef="0" IVar="-1" Cut="0.0000000000000000e+00" cType="1" res="-4.1389703750610352e-02" rms="2.1973317861557007e-01" purity="6.5238553285598755e-01" nType="-99"/>
          <Node pos="r" depth="2" NCoef="0" IVar="-1" Cut="0.0000000000000000e+00" cType="1" res="-8.2561634480953217e-03" rms="1.9797842204570770e-01" purity="8.9202356338500977e-01" nType="-99"/>
        </Node>
      </Node>
    </BinaryTree>
    <BinaryTree type="DecisionTree" boostWeight="1.0000000000000000e+00" itree="67">
